{"brain":{"weights_ih":[[1.2988614,0.7958698,0.75557053,-0.50331926,-0.9861247,-0.20115417,0.10046621,0.13727689,0.16748913,1.1254282,-1.0760856,0.97329396,-0.8093116,0.12531757,1.062675,1.4994478,1.1830055,-0.28507632,-0.19654477,-0.30295342],[-0.6846972,-0.72872496,0.63679826,0.6498954,-0.37455285,-0.70044404,1.3089725,-0.89179575,-0.3348246,1.6102346,-1.2836512,1.2712617,-0.1412751,0.15165022,-1.1608324,-1.8141723,-0.36502737,-1.465219,0.2933029,-1.7056801],[1.440875,1.0115145,-0.05513429,-1.4602381,1.1588085,-0.39674556,-0.43426827,0.74828506,-0.11463682,0.89369303,0.65860474,0.085280985,-1.0141164,-0.38598663,0.64219314,0.91364443,0.49676913,0.065646514,-0.53039324,0.3325786],[1.1658266,0.2931904,-1.787075,-0.9586916,0.45272937,0.4807224,1.8805083,-0.33462298,0.2225883,-0.26661882,1.2598838,0.26266354,1.0948308,-0.34954032,-1.2215525,0.1891895,0.35356134,-0.4370775,1.344267,-0.07766946],[1.807452,-0.59641194,-0.19359905,0.5396607,-0.82802796,-0.59832335,0.9386086,1.0092026,-0.71366453,1.6749368,-0.57025146,-1.4206265,0.5428304,0.15328862,-1.4427209,-2.0,1.2900244,-0.85350335,0.69548565,1.5747335],[-0.46918935,0.59645295,0.75669676,0.9216902,-2.0,1.949568,-1.6553843,-0.78341264,-0.619631,1.6268662,-1.105936,0.041139632,0.7552442,-0.8476944,-1.5239798,-0.15078941,1.1128467,0.45694536,-0.6684165,-0.39954066],[-1.0111322,0.023846768,0.5876151,-0.67507017,0.37287295,-1.6937827,-1.4551094,-0.06779482,1.8135083,0.026984192,1.8806325,1.8355558,0.1540064,-1.6276625,-0.078136906,-0.5461519,-0.28158668,1.563925,0.07036488,0.8598993],[-0.025550473,-0.9708375,1.1602967,-0.060204774,0.053059693,-0.019698765,0.87347364,0.19427595,0.83297014,1.8911712,-0.2767333,-0.91540897,-0.86883366,-0.126893,-1.9365456,0.31975052,0.051987037,1.5387952,1.1309601,-0.97921765],[-0.569226,0.573653,0.048171423,-0.48966986,-0.03505108,0.46128166,0.2727782,2.0,-0.6242692,-0.1296238,-0.5331119,-0.42830375,1.0014244,0.51748693,-0.83049065,0.22852209,0.65223014,0.70822084,1.0789914,-0.6415823],[1.2020257,1.325976,-1.8845491,-0.6289123,0.5487278,-1.3669883,0.44375953,0.3364678,-0.6224752,0.64021903,-0.67776823,-1.0595357,-0.30171984,-0.44127744,0.74505806,-0.058694236,1.7201222,-0.352225,0.51946753,0.8030993],[0.5759456,0.21382537,-0.78009444,-0.8639582,1.2113736,0.7718819,-1.1783432,0.17983612,0.50645024,0.08238228,1.0257785,-0.22691545,-0.40923348,1.4679071,-0.7964104,-1.6803128,-0.94672203,-1.0818496,-0.07535913,-1.3657677],[1.8068433,0.9163469,-1.300985,-1.4781735,0.9026147,0.021374695,0.39030862,-1.8698273,0.45398048,0.8141832,-1.4122483,0.5056585,-0.30636075,1.4082941,0.90828323,0.30649686,0.6726191,0.017198697,1.4723312,2.0],[1.7524418,-0.52398545,0.29903188,-0.532383,0.63915616,-0.13207564,0.6192791,0.42816192,0.6539666,0.1742346,1.0619382,0.11293336,0.035320498,-1.292705,-0.05431589,-1.2634759,0.16646448,0.034170777,-0.4315004,-0.19401315],[-0.20887208,0.7395911,-0.06627332,-0.74871594,1.6002523,0.97171575,-1.8589492,-1.9546994,0.99708664,0.92424476,0.06651885,-0.581938,-0.7032817,1.2761625,-1.4864917,0.13352206,1.1439153,0.9673238,-0.20440018,-0.791484],[-1.5373143,-0.0499724,-0.13277541,-0.054694217,0.70247626,0.17198572,-0.31927794,-0.9215772,-0.61771446,0.95003444,1.5124393,0.8161597,2.0,0.090143226,0.089884765,-1.1284268,1.7422363,0.9259379,-1.8507602,0.57794064],[1.2481711,-0.7372984,-0.3561672,-0.09670824,0.780929,-0.26827115,-1.7229509,1.2888154,0.010996864,-0.92640483,1.3641287,-0.7461134,0.48651657,-1.2787559,0.22523655,-0.8736417,-0.40701142,1.692318,-1.3132545,0.6878145],[0.76889515,-0.30840358,1.4779785,1.881291,0.823308,0.43992895,0.70145655,0.9578546,-1.1573578,0.24136925,-0.8077298,-0.3002293,0.7027163,1.5380499,0.83759284,0.1618866,1.2438301,-0.3312675,0.48360297,-2.0],[0.24541298,0.2940523,1.0865968,-0.22022444,-0.35111427,-1.9694617,0.022120811,0.28348044,0.76009816,1.0698124,-0.7130476,0.26719195,-1.5378584,0.27582422,1.2287107,0.6681827,-0.27018794,0.9306954,0.86676097,-0.23256563],[-0.7842751,1.4180394,1.8454297,-0.36295372,-0.12714766,1.4331708,0.06810618,-0.8213459,-0.6254183,-1.0254172,1.6947353,-1.561566,2.0,0.64009976,-0.2767702,0.82254595,-0.4575004,-0.53242844,0.35558927,-1.489793],[0.21062937,1.1065022,-0.8831506,-1.6012552,2.0,0.43290985,-0.7654434,0.020868003,-1.4545056,0.089136094,-1.5962993,0.35211945,0.10782463,-0.2613596,0.14088412,0.27322182,1.2688812,0.06364673,0.09464789,1.1863738],[-1.8684721,-2.0,-0.351103,-0.01324584,0.8318134,-0.6952165,-1.9337816,0.526984,-0.31498086,-0.02759142,-0.81652427,1.6817364,-1.4861412,1.0397888,-1.7871355,0.0017633736,0.6922127,-0.71641624,0.67036766,-0.36591095],[0.905722,0.072908536,1.8132969,-0.34577087,-0.8587424,-1.8531399,-0.0283525,0.49586946,1.2092897,-0.43207267,0.75074536,-0.22232848,1.5322675,-0.0049917214,0.72242135,-0.43716985,-0.41703656,2.0,1.0731429,-0.21389171],[-0.90970534,-1.1791658,0.07742873,-0.5373032,0.5034032,-1.5164721,0.9032195,1.1352586,0.6256049,0.2250059,0.19139543,0.7574201,-0.706302,-0.74747014,-0.60102427,0.42591566,1.2282037,0.11502543,-1.5662799,0.61446756],[-1.6560667,-1.0256442,0.55296767,-0.4872359,-0.575794,1.4592153,0.45738554,0.81748426,0.25439465,1.67137,-1.8859107,-0.40795326,-0.14449963,-1.7182193,2.0,-1.0009146,0.101115316,-0.42812037,0.3779744,-1.3414477],[0.41444403,-1.817902,1.1561735,-0.34487045,0.7264188,-1.4506706,0.63869673,1.44796,0.7808767,0.44472173,1.7075913,0.3401242,-0.74541,1.1996311,-0.90150195,0.5370095,-1.6900988,0.32218143,-0.5415542,-0.61220765],[0.062163256,1.7173952,0.19768894,0.49140915,-0.29673404,1.1102576,-0.679834,-2.0,-1.3077043,0.7418597,-1.0624634,-0.07033013,0.970254,1.0104696,-1.5909629,0.6869626,-1.8328558,-0.054850213,0.018489756,1.8168578],[-1.6891475,0.1284638,1.8536897,-1.2551694,1.3555703,-1.2418511,1.4964609,-1.1851941,1.1957966,0.9986957,0.19244334,-0.21702917,1.0093416,-0.68676883,0.09567831,1.0790906,1.2576675,-0.7438463,0.40313888,0.5991085],[-1.3330168,0.029138746,0.009352896,0.11108191,1.2155455,-0.34062672,0.9931974,0.25591558,-0.5745701,-0.18913627,-0.21197395,0.46689063,-1.2816573,0.16352466,0.35218683,-0.667345,-1.6420566,0.51276183,-0.023582634,0.61864346],[0.31615,-1.2883666,-0.09447175,0.95373535,1.0344826,0.8055689,-1.0342715,-1.1554371,-1.3137317,0.32566938,0.6437385,-0.7449815,-0.2008028,-0.49529186,-0.66739345,1.6522025,0.27105352,-0.53780824,-1.07749,-1.1428479],[0.13576758,-1.3130031,0.2618127,-1.6142669,1.973655,0.020711586,1.7738912,-0.44486323,-1.7336975,0.13961746,1.8754252,-0.59540105,1.7860405,-0.6001472,-1.3602319,-0.5744902,0.4506189,-1.3920789,1.382567,0.93409157],[-1.04501,0.90812325,-1.635936,-0.5377429,0.612159,1.026793,-0.46584898,-0.9955161,0.85874104,-1.3843586,0.3558756,0.36683744,-0.46290523,0.8669058,-1.0207496,-1.295468,-1.5714866,-0.031383563,1.6911628,1.0234935],[-1.0698546,1.5848022,-0.7156143,-0.1842564,-0.3287296,-1.818797,0.33251897,-1.9117506,-0.16401322,-1.0375563,1.102193,-0.034062207,0.984283,-0.78626615,0.23224266,-0.8469758,-0.4955271,-1.0131924,-1.9435506,1.1881174],[-0.20089838,-0.5135214,0.14398411,0.43237516,1.3474842,-1.6206504,-0.8765568,0.8983722,-0.9398731,1.2434669,-0.6912923,0.6767537,-1.5565639,-0.12935182,-1.6476951,-2.0,0.298227,-0.015512399,-0.7206259,-1.1193478],[-0.12538996,-0.92524886,1.1901301,1.3992664,0.28721458,0.97959465,0.89808685,-0.19865374,-0.024747774,1.5832274,1.1610452,1.0919214,0.11544496,0.10635347,-1.5935078,0.9553357,-0.6067663,-1.5309181,0.6061397,-1.6443242],[-0.23522446,0.8818989,-0.9549657,-1.1531862,1.0408493,0.85942566,1.7248466,-0.21520007,1.2077267,-1.1176864,0.41689205,1.4813426,-0.15935561,-1.1328452,-0.41450036,-1.0411347,0.46623078,0.36799264,0.84336543,-1.167398],[0.90268725,0.77406216,-0.3255629,1.2306653,-0.7519896,-1.1258992,-0.8078339,-0.56950516,-1.2393112,-0.80938315,-0.26623505,-1.4090339,0.5098498,0.16894485,-0.059508048,1.7092466,1.4630216,-1.2084162,1.0623462,-1.6656625],[-0.54592574,0.49873245,-0.50327826,0.80055815,-1.0205674,-1.4214345,1.0802453,-1.9906961,-0.043974057,0.5654837,-0.56541824,1.3407639,-1.282247,1.6107442,-0.27108192,0.97609925,0.17069417,0.44050467,0.74843687,1.8158181],[-0.70416176,-1.1334732,-0.54313695,-1.2741319,0.07197839,-0.4861483,-1.9890053,1.9277117,-1.4027278,-0.8047397,-0.38026765,-0.9682413,-0.4532627,-0.79717374,-0.6740288,-1.2891916,-0.58568805,0.272131,1.0375681,-0.77682894],[-0.07614434,0.5984609,-1.113082,1.6864134,0.33010057,1.4423282,1.825996,0.3096171,-0.85896087,0.064824365,-0.28214696,0.92773277,-0.5368872,-1.189245,0.0007339977,1.1194587,-1.056536,1.5627035,-0.10544922,0.61735487],[1.8057423,-0.3140747,-0.47484657,1.1462593,-0.7595142,0.42412734,0.3681005,-1.1220648,1.3962702,1.9882681,-0.659586,0.31155056,0.08307106,0.23992985,0.721522,0.36150312,-0.29749227,1.5795118,0.7860182,0.025721097],[-0.56922644,0.89252746,-0.5686451,0.970553,-0.17907402,0.5446855,0.5855929,-0.9969014,-0.12096967,-1.076904,-0.3503258,-0.825062,0.4801706,0.4881346,-0.5804358,1.2054474,0.68527937,-0.6132824,0.064981066,-0.045673497],[-0.37419477,-1.3803376,-0.36214423,-1.0483747,0.4830253,-0.42095533,0.81947416,-0.96694833,1.9735879,-0.7612604,0.5810009,0.10199225,-0.61944306,-0.5565835,-1.1798954,-1.6549549,0.011588991,0.46235085,-0.7623001,-0.2845744],[0.6586311,0.37492344,-0.5798282,-0.5530117,-0.6993264,-1.7801543,0.77074885,-0.041279443,-1.4045784,0.8559742,-0.36079288,0.5485378,-0.065546095,0.07111214,0.37616616,-0.74699813,-0.7538102,0.0900039,1.5911964,-0.86480826],[1.951144,1.2149696,0.38393378,-0.120217174,1.6698414,-0.28470686,0.9813221,-1.4761583,-0.58176196,1.3798372,-0.8964305,-0.7125578,0.11426022,-0.91087544,-0.45542508,-1.7318755,0.1406452,-1.7051123,0.23340671,0.82158893],[0.02835429,-1.4494815,-0.6835787,0.932718,-0.7037467,1.1888143,1.191975,-1.8459907,1.5585449,-0.61398494,-0.46675605,0.0050625578,-0.8054489,-0.7706186,-1.197656,-0.28151548,-1.1637148,-0.34669283,1.6771809,-0.8207487],[-1.7298456,1.1643615,0.030296195,1.5155691,1.767899,-1.6191298,0.23040096,-1.192334,0.40425754,-0.45546088,1.1335196,-1.3194736,0.88628393,0.30592945,0.902511,1.7173111,0.7144699,1.5120181,-0.033390936,-1.7406343],[-0.638059,1.0346818,-0.21370918,1.7145369,0.27473062,0.04326734,0.8268911,1.8329357,-1.7221358,-0.35748953,-0.21531111,0.62598896,0.20187995,-0.48331437,0.3443791,-0.49790108,-0.67406154,-1.8560281,-0.32806468,-1.4568411],[1.4040617,1.0573572,0.2553074,-1.0126493,-1.322182,-1.3858362,1.2109277,-0.6752896,-0.678765,-2.0,-0.6867352,0.36595738,-1.2632078,-0.8403605,-1.7875669,0.47526935,-0.09629113,0.3323252,0.49075687,0.42054245]],"bias_h":[-1.4063698,-0.25428596,-0.81732064,1.1993606,-0.3749076,-0.09536429,-0.12779072,0.3662697,-0.37944397,0.8113267,-1.1509954,-0.48776448,0.092354596,1.8265811,-0.9389917,-1.4101641,-0.079193115,0.4251338,0.4524805,-0.5150655,0.68745923,0.049967907,-0.8622148,0.6636789,-0.2501399,-1.1559258,-1.5707489,-0.365652,1.345341,0.75121635,0.26332748,-1.812506,0.5580227,0.53301144,-0.13353497,1.914859,1.3940043,0.3710845,-0.43169862,-0.097090654,-1.1137578,-0.6094146,-1.5892555,-0.46364856,-1.2454448,-0.29020387,-0.78271717,-0.5027405],"weights_ho":[[-1.87463,-0.26880124,0.70449543,-0.06612632,1.2751209,-1.334667,0.32879332,-0.7343097,-0.16615097,-1.982609,-0.19636665,-1.2539191,-1.4084314,0.6582074,0.9715343,0.42417336,1.1515312,1.2114258,0.69364494,0.34033844,0.88835996,0.09557665,0.2799376,1.4471653,-0.42541775,0.3631108,1.9480847,1.7371913,1.7838699,-1.0933325,-0.25290015,0.82038116,0.88738626,1.8245428,-0.10402688,0.32663673,1.967821,0.4179458,0.39888757,-0.28218475,0.88366425,0.2959574,-1.6946058,-0.40626436,1.2714543,1.744421,-0.46361533,0.7880656],[0.22818789,-1.257557,-0.5705924,-1.5853084,2.0,0.7804841,1.2448415,-1.3512167,0.37883225,0.73411584,1.9846563,-0.8225979,-1.0404209,-1.753768,1.5394502,-1.7984899,-1.3872253,0.63316137,-1.7246711,0.9492877,-0.43213502,-1.3323184,-0.5639801,0.15768558,-0.36191645,0.6883345,-0.560248,-0.630952,0.3844321,-1.9149536,-0.15355445,0.77983505,-0.13506232,-1.316149,-0.9571195,-1.3124901,0.41607684,-1.7916178,-0.5105324,-0.19850186,1.3279916,-1.2822196,-1.0392661,0.6520881,0.5985993,-0.8508342,1.2420573,-1.8749918],[0.006925702,-0.15734203,1.3949656,1.2494386,0.30744874,-0.1806868,-0.6520153,-0.6874587,-1.2700586,-0.2428274,1.2112683,1.2206182,-1.4854857,0.35508808,1.20258,-0.27715734,1.1514367,1.1888272,-0.60983115,1.5471336,0.12721139,0.23445809,-0.48449233,-0.18462852,0.42157826,-0.18473914,-0.55694366,-0.4837722,-0.8668861,-1.7312362,0.59534097,-1.0903959,1.4018106,0.8929338,-0.99502283,0.51791847,-0.6775771,0.83353907,-1.7923719,-0.49307144,-0.7227235,1.1070228,0.8263602,1.6935468,0.184951,-0.10934968,-1.9034381,1.1369417],[-0.74473697,0.15402892,0.15576954,-0.14565258,0.33729184,-0.7716335,0.8210583,1.7320076,0.046060238,-0.792676,-0.46235806,-0.6327408,-0.9524055,0.7979769,0.5765325,-1.3902395,0.4232908,-0.68021667,0.61490774,0.009218425,-0.9081636,-1.5780925,0.17691764,1.0979432,-0.10703062,-0.9743291,1.4877571,-1.0906329,0.8454069,-1.3464875,-1.4162763,0.5007282,-0.062349744,0.8235039,1.040288,0.22793464,-0.64798146,1.6051905,1.4623463,-0.681103,0.89740443,-0.609409,1.9498099,1.2918499,1.0480489,0.9741483,-1.3399541,-0.471372]],"bias_o":[-0.14952955,-1.3343331,0.48763287,0.3022969],"input_size":20,"hidden_size":48,"output_size":4},"generation":4522}