{"weights_ih":[[0.7430978,0.34296983,0.6172929,-0.16151947,0.20933183,0.12874953,0.056059454,-0.95857394,-0.44397786,0.76865363,0.6558002,0.69955045,-0.9313848,-0.25512096,0.68955123,0.32344335,-0.37076366,-0.41237313,0.76496524,0.00035886886],[-0.04531413,-0.43316638,0.62395525,-0.4047396,0.40124318,-0.5202701,0.1490577,-0.37415498,-0.9040077,-0.051343493,-0.8847116,0.16839194,-0.3972071,-0.12862584,-0.11115914,-0.90154296,-0.37252083,-0.6330168,0.08729808,-0.6018552],[0.72374403,0.7698936,-0.5210955,-0.9682608,0.47995955,0.36418235,0.07897731,0.82673377,-0.73377126,-0.87652135,0.32257316,-0.44523025,-0.68752974,0.14924538,-0.7402053,0.37576336,-0.24294208,0.7232531,0.6914098,-0.56043875],[0.4680242,-0.49583787,0.6885643,-0.031445198,-0.7552066,0.8272713,0.70164275,0.22984412,-0.01770325,-0.6286256,0.80188346,0.78904825,0.42409638,-0.20659943,-0.7033615,-0.0627986,0.8294835,0.38649964,-0.3545586,-0.29627323],[0.39840648,-0.40962932,0.57032,-0.4249575,-0.9344163,-0.55472267,-0.47039983,-0.2770594,-0.95294124,0.2759614,-0.2685026,-0.15608667,0.105598584,0.07840312,-0.48490334,-0.6658649,0.6995072,0.012947775,0.44118646,0.80332375],[0.72960436,-0.89215213,0.51614183,0.13884063,0.626303,0.82666487,0.61060506,-0.75936437,-0.36379576,0.90660733,0.38141137,0.53965414,0.7766613,-0.9288638,-0.619327,-0.54735106,0.6164882,0.030844744,0.08741476,-0.44006473],[0.971348,0.9815749,0.07491887,-0.33001775,0.76857287,-0.86730826,-0.8815201,0.25126415,0.91380787,0.96958685,0.4295808,-0.8275437,0.9053696,-0.45573092,-0.49916172,-0.012347899,0.30764318,-0.11915796,-0.60813594,0.7035379],[0.4135764,-0.34686884,-0.3876546,0.27291372,0.8601532,-0.76758564,-0.26812622,-0.1733306,0.6996864,0.99128515,-0.48975307,-0.7281426,0.2450256,0.12186101,-0.9887109,-0.7742315,-0.9166371,0.6342641,0.8178949,0.36061198],[0.048409827,0.89046484,-0.9078978,-0.42405885,-0.05188969,-0.74288875,0.45211586,0.7600009,-0.78305465,-0.936914,0.25289991,0.84698653,0.6314793,-0.8432394,-0.7043364,-0.5246425,-0.022505872,1.0528706,-0.26110262,0.77718383],[0.3445831,-0.46272883,-0.024846233,-1.0450432,-0.15101956,-0.34185958,-0.23481756,-0.05208858,-0.7225363,-0.7010032,0.4622188,0.26341107,-0.4266678,0.89741576,0.11928377,0.42000458,0.8621973,0.57844156,0.72804755,-0.34343353],[-0.09064201,0.96662486,-0.2516877,-0.175579,0.2599839,0.19025284,-0.0827368,-0.9122824,0.8363741,-0.40788767,1.0383645,-0.38705033,-0.6481709,0.22346462,-0.5025605,-0.9353517,0.47244525,-0.18146516,-0.7107193,-0.6469908],[0.7244583,-0.26194298,-0.8689284,-0.42395988,0.14022665,0.6706865,0.4101093,-0.78099763,0.006843388,0.3531299,-0.33292323,-0.64914286,0.47940686,-0.27912086,0.12683117,-0.2425399,0.4761579,-0.8398563,0.82074875,0.48925042],[0.3753393,0.47513914,0.5727835,-0.44101286,0.6092864,0.63296,0.4035372,0.10948906,0.81514883,0.6126006,0.3329347,-0.16574907,0.5047332,-0.39024776,-0.1523372,0.30275595,-1.0225242,0.25601286,-0.36664,-0.10546274],[-1.0618547,0.54773206,0.2201667,0.55025446,0.33571044,0.84498465,-0.8189165,-0.32771266,0.8161089,-0.14341997,-0.43400955,-0.6427855,-0.100439884,-0.4533349,0.740873,-0.91726196,-0.28313822,-0.2032172,-0.4899116,-0.4565422],[-0.7862328,-1.035013,0.14089128,-0.78530574,-0.10671437,0.21960229,-0.8607892,-0.6296776,0.7290951,0.47515583,-0.16190812,-0.3129652,-0.55700594,0.52141446,-0.6453502,-0.8846316,0.64103836,0.17416328,-0.003721091,0.82923967],[0.40429106,-0.30243278,-0.6417086,-0.6624125,0.7693272,-0.16158605,-0.5512983,0.5748308,-0.06504625,-0.9892675,0.5607671,0.06109838,-0.17778127,0.15622154,-0.6736585,-0.5359591,-0.6909976,-0.48124132,-0.9371224,0.79722726],[0.6793882,0.84379256,0.14866534,0.7318046,0.069552764,0.021331917,0.16711654,-0.16322175,-0.8943941,-0.50278366,0.5528157,0.008853048,0.74660444,0.4502794,-0.77055633,0.765951,0.13054797,0.0015212493,0.11131484,-0.57239366],[0.34645575,0.04109961,0.88576275,0.031266518,-0.4384139,-0.7945915,-0.49224102,0.7673412,-0.5267025,-0.6828343,-0.18395762,0.25474802,0.31838092,0.33406883,0.7532226,-0.12793295,-0.9098561,0.8830379,0.4641261,0.60999334],[0.08190707,0.50486374,0.65047896,0.629834,-0.5389099,0.66024554,0.48170567,-0.9891524,-0.8565928,-1.1340734,0.42572165,-0.30893624,0.73550016,0.2040034,-0.32672408,-0.018177059,-0.53243303,-0.48619813,0.0128244385,0.0018822569],[0.23696133,-0.5230278,-1.0183643,-1.0077332,0.77372855,0.25705248,-0.36840588,0.37020677,-0.8086925,0.18579195,-0.613129,0.25424019,0.4653316,0.16512407,0.6837037,0.10858294,0.19926547,0.07250015,-0.20237757,0.26901594],[-0.71686465,0.014574934,-0.4318975,0.3728675,0.67317253,0.33435786,-0.7569697,-0.54178506,-0.102725446,0.6796853,-0.6406823,0.72020817,-0.7181224,0.53076947,-0.82897556,0.62932205,-0.19272235,0.64799845,0.06792263,0.5946701],[0.510047,-0.929618,0.7516472,-0.08156169,-0.8070019,-0.9157752,-0.8333789,0.27197856,0.07545776,0.6953417,-0.25536343,-0.16352333,0.8424759,0.31655756,0.45106816,-0.5824165,1.0870765,0.4295529,0.6801425,0.6933146],[0.47437632,-0.9515912,0.03584645,-0.13503414,0.06322105,-0.1342047,0.2529407,-0.26412448,0.36889696,-0.19809541,-0.46052518,0.5098887,-0.2928218,0.016344544,-0.30076987,0.95899063,0.86474925,0.3458116,-0.2293038,0.13304807],[-0.28589767,-0.7937356,0.26786608,0.19859627,-0.7540477,1.0505008,-0.3210736,-0.1855111,-0.5161435,0.8241838,-0.6548937,-0.75465184,0.66543627,-0.9075291,-0.067451395,-0.3428076,-0.97345084,0.19480404,0.10987817,-0.4636305],[-0.24095543,-0.55613726,0.9758878,0.35460848,0.35125142,-1.0342091,-0.42673874,0.9961698,1.0192441,-0.021488331,0.53791106,0.5527794,-0.42730737,-0.37086907,-0.95202124,-0.5342548,-0.77968764,-0.44346792,0.29410556,-0.32561016],[0.8747824,-0.16810952,-0.05023555,0.13373588,-0.5227252,-0.32790762,-1.0600151,-0.995933,-0.12152329,-0.5145512,-0.91391015,0.61949205,0.31598592,0.61861205,-0.7704135,0.39597812,-0.56856936,0.65946764,0.38048288,0.6029816],[-0.5942342,0.7308037,0.56499976,-0.92036283,-0.58666515,0.806467,0.91777694,0.33718362,-0.81898725,0.93863267,-0.17319956,-0.87653965,-0.21443056,-0.80816865,-0.9269386,-0.5495382,-0.13517155,-1.0352861,0.48105288,0.35172355],[-0.8115715,-0.37286863,-0.20952263,0.6704911,0.7980166,-0.56833595,0.8859613,0.26707244,-0.26588994,-0.33370516,0.34611145,0.8256017,-0.78509104,0.8747006,0.5395767,-0.00011278689,-0.8064995,0.64477295,-0.77931696,-0.68439317],[-0.69412243,-0.5162005,0.23137237,0.8024909,0.2607236,0.88131243,-0.8138831,-0.6212865,-0.6377825,-0.5073668,-0.13432519,-0.041262493,-0.5178938,0.01236989,0.20951824,0.7162573,-0.45025438,-0.95433253,-0.622591,0.5987547],[-0.7923629,-0.86339587,-0.37863433,-0.054324284,0.37618238,0.118581265,0.6231532,-0.78069603,-0.09832047,-0.9014456,0.9372436,0.55668473,0.37141174,-0.24168077,-0.4844768,0.26855734,0.3004799,-0.92313826,-0.34503266,0.47731787],[-0.544214,0.84082466,-0.43952835,0.6286108,-0.39929432,0.1689755,-0.8364189,0.072847195,-0.6513622,-0.26381335,0.03658918,0.7176407,-0.6626511,-0.6818401,0.043569066,-0.19908792,0.33272272,-0.5667596,-0.15174821,-0.0025739297],[0.23135585,0.7517218,0.2902743,-0.87488914,0.76861966,0.096569866,0.22073618,0.25573638,0.013631415,-0.2915865,0.42518026,0.72085196,0.15564322,0.5448814,0.98999786,0.014608753,-0.7084371,-0.4502702,-0.12012984,0.9596738],[0.6114002,0.21487305,0.093831815,0.88931614,-0.011874372,-1.0836239,0.37164366,0.68647194,-0.009825893,-0.31514376,-0.29550534,-0.6119562,-0.06240168,0.28567693,0.052365337,-0.66397536,0.8957857,0.18406321,-0.7394586,0.5141555],[-0.27901462,-0.57405466,0.025663272,-0.26019937,0.8648111,0.97862256,0.7606838,0.17289332,0.74297076,0.6434938,0.7281511,0.71139765,0.1733395,0.43397743,-0.98403096,-0.1570652,-0.88344175,-1.0390608,-0.5358451,-0.22579792],[0.15972835,0.2570699,-0.8559649,-0.3108161,0.9160664,0.7703245,0.03976442,-0.27532196,0.6431276,-0.95286447,-0.20136105,0.723441,0.9122259,-0.69529754,-0.59451085,-0.95343715,-0.7811786,0.055852257,-0.37286338,0.043026265],[-0.14160806,-0.64282703,-0.12854946,0.016998753,0.13270746,-0.62000465,0.040549226,0.11778016,-0.29218936,0.61122143,-0.87202203,-0.69606113,0.25881213,0.26129112,-0.75162053,0.16504024,0.027194386,0.4667703,-0.23483467,-0.8625272],[-0.8283914,0.16799979,0.5026998,0.55392134,-0.62501544,-0.93407553,0.885734,-0.9318565,-0.63250935,0.39648744,0.7925359,0.9530499,-0.47311485,0.6064702,0.5488038,0.91186255,0.62843096,-0.70737875,0.4495529,0.624012],[-0.326901,-0.83479846,-0.7092766,-0.15178367,0.25612152,-0.24013638,-0.7016345,0.75574476,0.010664396,-0.026844252,-0.67826986,-0.21957056,-0.71017516,-0.28933704,-0.35485682,-0.8706546,0.08311559,0.5181004,0.80167794,0.56997603],[-0.31440064,0.51846737,-0.34971958,0.5405154,-0.80794126,0.91875225,0.6105823,-0.53847706,0.378169,0.9097808,0.21152619,0.5445205,0.30426493,-0.7175337,-0.17920673,-0.11232425,-0.081093535,0.447274,0.119490094,0.4180906],[0.5589864,-0.022407144,0.3067592,-0.45566964,-0.5972175,0.9067301,-0.22494847,-0.06757947,0.67797375,0.6119052,0.9528726,-0.26026592,0.9037625,-0.67491806,0.4976783,0.32395908,0.5448017,0.748502,0.3879527,0.27069518],[-0.6171646,-0.7012962,0.41461593,0.6481608,0.4475939,0.7297835,0.609235,-0.43710428,0.07276569,-0.49967748,-0.7799533,-0.69529593,-0.027885692,0.31942078,-0.6313342,0.48843652,0.52207726,0.15319584,-0.37498945,0.18391262],[-0.039023798,0.1137645,0.004501663,-0.14838882,-0.773365,0.31684864,-0.90222394,-0.6534787,-0.28463453,-0.8225593,0.10959739,-0.8293071,-0.52240473,-0.45792744,0.7890831,0.40733084,-0.8275093,-0.80875427,-0.7778674,0.8765273],[0.8253003,-0.5933608,0.9059683,-0.5402557,0.12669815,-0.4808576,-0.18788064,0.24885474,-0.5132494,0.81848675,-0.8803394,0.91156274,-0.27808797,-0.46383205,1.0013766,-0.34024802,-0.22473788,-1.0170404,0.023709208,-0.07892557],[0.79227465,0.85820764,0.8801913,-0.57735336,0.3153009,-0.65967673,0.5423095,-0.9160008,-0.47099763,0.27427188,0.11316715,0.18632202,0.83846927,0.43861794,-0.8002417,0.015422059,0.19096428,-0.84735024,0.4577366,-0.42724013],[-0.6834488,-0.13172553,-0.18507592,0.12162977,-0.91839504,0.38716203,0.60791504,0.24963991,0.6841131,-0.6832763,-0.62186337,-0.5084966,-1.0273186,-0.9356072,-0.328098,-0.44683722,-0.9111069,-0.65463245,-0.25782833,-0.27650473],[-0.64817995,1.028315,0.19153506,-0.70803535,0.7486318,-0.93727565,0.5950466,-0.6501665,-0.24134427,0.19556294,0.35950112,0.18910474,0.6525833,0.7999858,0.24120602,0.90802175,0.075050995,0.7649672,0.3149614,-0.19724584],[0.14014,0.49340156,-0.43247402,0.95774096,0.92609036,0.21920078,0.22009605,0.059477307,0.44110644,-0.4615348,-0.29515168,0.3581284,0.76641554,-0.3423658,-0.8743086,-0.78163743,-0.15146941,-0.60473937,-0.18237737,-0.47116536],[0.7473447,0.82449484,0.29585373,-0.6307732,-0.2221136,-0.48807085,0.18397632,-0.08371406,-0.5821075,-0.6484069,0.9029388,0.09482236,-0.2575438,-0.17429835,-0.7979161,-0.34684736,0.60134214,0.86274403,0.25400287,0.82793283]],"bias_h":[-0.25160265,0.24276406,-0.9321853,-0.5302688,0.7167584,-0.35449532,-0.302932,0.03958302,-0.3692205,0.56329817,-0.88366413,-0.8755779,0.092902094,0.48051476,-0.8327603,-0.69546115,-0.06441634,0.73314226,0.81240314,-0.90908045,0.95168924,0.8402488,0.6798526,0.06601002,0.3895401,-0.73248523,-0.13527423,0.09864604,0.6811132,-0.46172217,0.1457331,-0.8488174,0.4625947,0.069471024,-0.13266285,0.82831824,0.88085234,0.6850728,-0.59025854,0.7067616,-0.9248812,0.19164534,-0.22541931,-0.24086966,-0.9104416,-0.39051405,0.119311,-0.14413358],"weights_ho":[[-0.13300282,-0.043883838,0.7005028,-0.28538266,-0.45902097,-0.36554873,-0.34408697,-0.41692314,0.19414824,-0.20716919,0.7909218,-0.73277223,-0.871726,0.97245884,0.49085498,0.054840565,0.019320883,0.43799317,0.1948901,0.23973702,0.83820885,-0.9583883,0.35704544,-0.7675494,0.01755253,0.8084611,0.34254417,0.25185654,0.9047513,-0.10067294,-0.15474133,-0.40524605,0.3045234,0.23250708,0.38596845,0.62372696,0.6142756,0.6317682,-0.57225895,-0.75388014,0.0086817,-0.24686572,-0.7784614,0.50618875,0.44624907,-0.48977575,-0.034692626,0.6149182],[0.44073474,-0.4922565,-0.48588476,-0.89812106,-0.19847405,0.583765,0.75018793,-0.33773148,0.70910865,0.8854258,0.52209514,-0.5168206,-0.3864985,-0.4071172,0.6934132,-0.7923127,-0.79978925,0.54874265,-0.6863018,-0.8265438,-0.6955657,-0.87212723,-0.8047218,0.71758974,0.479783,-0.22384849,-0.083331525,0.37373567,-0.6054572,-0.59310305,-0.7507493,-0.40322775,-0.30995727,-0.2764422,-0.21494824,-0.45582467,0.13508847,-0.7250981,0.21910118,0.72345704,0.8820448,-0.8199095,-0.24888793,0.44841263,0.17910738,0.36406878,0.52680284,-0.70828104],[-0.7905296,0.11348863,0.22693133,0.91992164,0.6849219,0.113732725,-0.41162848,-0.37617525,0.85838443,-0.1016142,0.17100136,0.8355668,0.06580698,-0.3523642,0.6271019,0.06493589,-0.43369928,0.69119835,0.8778114,0.8434966,-0.51226956,-0.63002867,-0.72417593,-0.7374682,-0.87376344,0.8890872,-0.99475014,0.0695569,-0.36901587,-0.75563204,0.01116251,-0.35055664,0.35266176,0.47885907,0.10450961,0.75294,0.28452167,0.87596756,-0.78698575,-0.09624025,0.63814706,0.9658506,-0.597915,0.16750458,0.4082235,0.12883879,-0.73189306,-0.22187597],[0.16527422,-0.056360066,0.2896573,-0.83271134,0.34127307,-0.00033526705,0.060095858,0.9634018,-0.32508463,-0.43821263,0.64873284,-0.57869345,0.06973788,-0.017378196,0.77285016,-0.7573923,-0.54152435,-0.89857656,0.77698153,-0.088277556,0.130198,-0.4249671,0.44610956,-0.39915693,-0.9859046,-0.7902961,0.6336297,0.70855343,0.79383934,-0.8554005,-0.6188174,-0.22358768,-0.898461,-0.32181817,0.7270874,-0.09036909,-0.03203339,1.025726,-0.08912568,-0.22003175,0.6493316,-0.5045968,0.554677,-0.0050078444,0.7840458,0.64625335,-0.077801526,-0.6646043]],"bias_o":[-0.2885628,-0.4572303,0.09133928,-0.19069752],"input_size":20,"hidden_size":48,"output_size":4}