{"brain":{"weights_ih":[[0.68350524,0.25582063,0.7625623,-0.1185282,0.24501055,0.26515028,-0.009988878,-1.0492456,-0.12587538,0.8503327,0.5352865,0.6523649,-0.8268441,-0.3448305,0.69545025,0.32911968,-0.6790004,-0.49634114,0.7089759,-0.03252246],[-0.21014552,-0.50224465,0.65688986,-0.2409845,0.46094996,-0.6179135,0.05424924,-0.45023236,-0.75991774,0.045016106,-1.1946539,0.25393337,-0.31706917,-0.11692434,0.0222717,-0.89531595,-0.36352578,-0.6422304,-0.037906397,-0.71701133],[0.7896717,0.75056297,-0.5328766,-0.94767565,0.44645345,0.38016698,-0.16110182,0.78704935,-0.73377126,-0.6745484,0.21946084,-0.3075204,-0.51179373,0.14082468,-0.781123,0.6043302,-0.34168145,0.68668437,0.63828874,-0.5339541],[0.27914837,-0.3596777,0.66220415,-0.0331574,-0.7976211,0.80646825,0.7182855,0.1587348,-0.20896955,-0.9006303,0.6919235,0.75514996,0.54152834,-0.27683148,-0.7022072,-0.06862917,0.8703957,0.3943362,-0.29544023,-0.381871],[0.23254025,-0.3763308,0.49177656,-0.26543304,-0.8618686,-0.6183697,-0.47498292,-0.24721014,-1.0470705,0.25673348,-0.19564906,-0.4874022,0.19291314,0.20965685,-0.60115653,-0.9095195,0.53153676,-0.16232042,0.23088732,0.7445743],[0.8020946,-0.99034196,0.5620891,0.18970335,0.68295026,0.74030375,0.7641617,-0.68749416,-0.27803752,0.8624347,0.49692604,0.47837037,0.8939048,-1.0061419,-0.6338783,-0.5095568,0.47231448,0.027765967,0.07860695,-0.47394556],[0.96487147,0.83572555,0.093388155,-0.36984843,0.9711464,-0.87393606,-0.93916416,0.11413856,0.929678,1.0960599,0.34703606,-0.7048112,0.95706236,-0.4699441,-0.4865079,-0.020420542,0.5440674,-0.07316127,-0.85875094,0.88236105],[0.389516,-0.38189173,-0.38170096,0.3930134,0.8862262,-0.7357179,-0.24581578,-0.16041766,0.6868412,0.9617163,-0.6520449,-0.7657084,0.100602254,0.2139306,-0.99788785,-0.8968891,-1.0462189,0.67831224,0.80269647,0.1255839],[-0.11545506,0.81001276,-0.7545951,-0.2720175,0.03277613,-0.8140418,0.6107745,0.79620755,-0.7656419,-0.946118,0.32086107,0.78501475,0.8379485,-0.8926633,-0.729349,-0.53489536,0.04775192,1.0528706,-0.1618937,0.69304514],[0.19013555,-0.4890978,0.15704614,-0.9163684,-0.013857909,-0.38323665,-0.10480878,-0.16220242,-0.8130939,-0.6036494,0.32964575,0.48487592,-0.3137297,0.68657315,0.10853347,0.41155347,0.90630066,0.58459854,0.7664956,-0.37816662],[-0.012203142,1.0805521,-0.30312818,-0.22424978,0.21010596,0.16357353,-0.011077635,-0.832882,0.83126116,-0.41874057,1.1248507,-0.63643396,-0.6695056,0.09716822,-0.3386891,-1.1773843,0.42475566,-0.11120509,-0.69708323,-0.6412409],[0.77666426,-0.2600485,-0.94376695,-0.28671664,0.22108673,0.6209069,0.44939643,-0.68452746,0.010526251,0.2994321,-0.2695588,-0.44069067,0.47002012,-0.38166654,-0.0074585853,-0.32310227,0.34797028,-0.63983244,0.887576,0.6480535],[0.32195136,0.389378,0.5621947,-0.39566705,0.53786516,0.59141004,0.42401624,0.025892265,0.8144199,0.5889601,0.27744937,-0.12344077,0.5463809,-0.49760568,-0.16003484,0.33678266,-0.95419353,0.14632645,-0.058807444,-0.15201914],[-1.0672277,0.584529,0.3573149,0.49251923,0.43135422,0.8262811,-1.0096059,-0.15656453,0.8219729,-0.24730383,-0.5365653,-0.6255665,-0.37190259,-0.36010864,0.8108398,-1.1418067,-0.1698834,-0.24284686,-0.38959673,-0.5224058],[-0.7725945,-0.9994316,0.18325655,-0.6619777,-0.09279056,0.44101197,-0.8626315,-0.57853365,0.8187526,0.3326119,-0.27927765,-0.29898918,-0.6215849,0.5237831,-0.51993966,-0.8075808,0.64103836,0.33671924,-0.0043710433,0.779613],[0.38334438,-0.3467203,-0.70030314,-0.6890897,0.78650874,-0.29244012,-0.4954266,0.7790134,0.011322003,-0.9118204,0.61762977,0.12047922,-0.2051228,0.105441555,-0.7719603,-0.6504007,-0.6770733,-0.26981053,-0.8601824,0.9613634],[0.6548009,0.5943548,0.10102919,0.55343527,-0.095009744,-0.07218674,0.22458582,-0.16019695,-0.7779561,-0.5587854,0.30429617,-0.12873359,0.659613,0.62749374,-0.72411305,0.81709194,0.17203423,-0.020064753,0.09036023,-0.74490327],[0.50566983,0.11052334,0.77693087,-0.017407063,-0.42309684,-0.76271373,-0.44800386,0.7440987,-0.44532737,-0.7083064,-0.177133,0.22863375,-0.0029420406,0.34214005,0.83479756,-0.1272046,-0.9766904,0.92814034,0.38990015,0.5714977],[0.004608296,0.52812123,0.5485126,0.8075262,-0.5389099,0.5770144,0.27971956,-1.0785397,-0.908891,-1.18147,0.33573738,-0.4765347,0.6951593,0.27154085,-0.19605067,-0.018610112,-0.45286492,-0.6188378,-0.14930548,-0.1716162],[0.36751854,-0.52083385,-0.97557884,-1.0488766,0.5977928,0.48152578,-0.16674045,0.30912742,-0.9415109,0.17352791,-0.4378848,0.15655765,0.39503115,0.09484885,0.7465572,0.15813492,0.2585302,-0.0993584,-0.24801502,0.5887663],[-0.7872016,0.0567477,-0.2908452,0.32771143,0.9298131,0.08596032,-0.5415537,-0.4368621,-0.102725446,0.691745,-0.6438118,0.72177017,-0.8320169,0.48098198,-0.7768737,0.7016594,-0.08910213,0.50770134,0.08329712,0.5137161],[0.59673697,-0.916331,0.57689923,-0.040205166,-0.7674028,-0.9829922,-0.73534626,0.31102437,0.06288997,0.77856886,-0.27334073,-0.37716198,0.74198025,0.37440616,0.7395327,-0.66933155,1.0554227,0.31174394,0.72537297,0.6081829],[0.47437632,-0.8752432,0.04964181,-0.13980228,0.0006775707,-0.068593875,0.46394193,-0.10144113,0.34593666,-0.3109113,-0.77746534,0.69173586,-0.2890682,-0.02682726,-0.25774378,0.9483038,0.86474925,0.3968213,-0.21980788,0.234564],[-0.4122409,-1.1584206,0.2416895,0.12855296,-0.92114687,1.1665826,-0.41077673,-0.13182227,-0.5919927,0.962231,-0.5715032,-0.71917105,0.6012654,-0.75720036,0.07217436,-0.36291793,-0.9536599,-0.12845913,0.10694641,-0.5418392],[-0.22719818,-0.8064346,0.9963433,0.2817951,0.5191095,-1.0541714,-0.35432282,0.7558356,0.86567503,0.30979112,0.7497925,0.45095742,-0.42973298,-0.28198284,-0.9317858,-0.41552085,-0.76275814,-0.43593532,0.29410556,-0.32311383],[0.7095108,-0.23752065,-0.08846903,-0.006642051,-0.5227252,-0.20308977,-1.1877309,-1.2148615,-0.17696229,-0.38349712,-0.872805,0.5823693,0.45048052,0.542286,-0.86358774,0.55237156,-0.51597404,0.414235,0.30115616,0.56866884],[-0.6723121,0.7750521,0.45843968,-0.8717511,-0.6131861,0.75267065,0.96860355,0.31817633,-0.74390185,0.8982271,-0.044332504,-0.7791357,-0.3709876,-0.72821355,-0.94825345,-0.4317511,-0.08975366,-1.1503245,0.5868308,0.36302254],[-0.73951304,-0.29125047,-0.21186379,0.5944009,0.99601597,-0.2811033,0.73679966,0.35353047,-0.41385248,-0.38863173,0.23209165,0.9948865,-0.8693143,0.7368097,0.5243088,-0.17022435,-0.85295415,0.80928445,-0.92823315,-0.6839508],[-0.47685653,-0.465019,0.46027502,1.0078714,0.2723064,0.762589,-0.93268996,-0.5216928,-0.6742959,-0.40964335,-0.34167874,-0.060566116,-0.43986073,0.0026939064,0.22006026,0.7931663,-0.35738644,-1.0475057,-0.40939674,0.63505584],[-0.8505715,-0.6620597,-0.3628406,0.0033077616,0.33240265,0.16306478,0.70700115,-0.674754,-0.24889198,-1.0943111,1.0904349,0.6215881,0.48074135,-0.19271979,-0.68193394,0.32234603,0.28115758,-0.7273785,-0.38709745,0.39042598],[-0.53504807,0.8054359,-0.5639775,0.748077,-0.22681995,0.2572192,-0.8056652,-0.1025546,-0.69318616,-0.31093076,-0.03625161,0.59658986,-0.66202193,-0.67699105,0.015486982,-0.15939124,0.40736586,-0.67400247,-0.040933136,-0.098518886],[0.119176365,0.9426819,0.20143908,-0.96117723,0.9412411,0.12291898,0.161335,0.10159014,-0.08157446,-0.3635536,0.45044696,0.45608836,0.54069376,0.5546913,1.0206108,-0.036521077,-0.6456901,-0.4502702,-0.045437254,0.828093],[0.48310757,0.23791395,0.2534137,0.81404644,0.01457289,-1.0063334,0.24172662,0.5906534,-0.15255195,-0.37718016,-0.33477157,-0.6635194,-0.10828885,0.35288715,0.11510414,-0.88633895,0.94256127,0.123277515,-0.7394586,0.44626722],[-0.11137603,-0.57405466,-0.101158775,-0.21622464,0.8728848,1.0366125,0.8559414,0.017639086,0.826469,0.5594292,0.75669163,0.7007551,0.013713896,0.43878567,-1.1355158,0.20492795,-0.8332442,-1.0402063,-0.3161919,-0.082690544],[0.10230843,0.29439032,-0.7739151,-0.21367837,1.043835,0.8487259,0.12277791,-0.35732663,0.6087132,-0.9787681,-0.0015867315,0.61524403,1.0312992,-0.75971377,-0.5804126,-0.7880968,-0.78687465,-0.08274011,-0.3889029,0.108393595],[0.13457492,-0.5307693,-0.28673264,-0.06658642,-0.21418366,-0.5025034,-0.10076533,0.11904753,-0.37094864,0.7578922,-0.9686425,-0.5657196,0.36494467,0.3121118,-0.63265544,0.223069,0.08418798,0.61150855,-0.25652683,-0.9668192],[-0.7866788,-0.047705613,0.53978163,0.59109294,-0.8238996,-0.89747465,0.98505324,-0.8573704,-0.66573703,0.29233313,0.7585573,0.9584865,-0.32338396,0.9565082,0.5548998,0.85952777,0.6359695,-0.68626755,0.38132057,0.624012],[-0.4103719,-0.88671017,-0.64765763,-0.22289108,0.40871692,0.07311475,-0.6233676,0.6871926,0.09161782,-0.10848981,-0.5791271,-0.25690198,-0.627936,-0.2833145,-0.24940722,-0.8149919,0.33970946,0.68767124,1.0242901,0.7421041],[-0.30837858,0.4154756,-0.3466369,0.5360512,-0.6752717,0.780109,0.67167073,-0.38635188,0.416107,0.9426786,0.14534909,0.73528886,0.10173077,-0.59110713,-0.14268887,-0.12288049,0.12371843,0.35296994,0.17455998,0.24442455],[0.52176726,-0.016114702,0.27212542,-0.5931813,-0.42833215,0.9650158,-0.26239383,-0.18644571,0.68393946,0.7441353,1.0694518,-0.31476063,0.85165286,-0.6248209,0.6624284,0.32785988,0.58901346,0.62359005,0.4946888,0.34110767],[-0.7966977,-0.8368855,0.4482527,0.38861486,0.35560915,0.83079135,0.60517347,-0.54914534,0.050536655,-0.5165771,-0.8403528,-0.62468696,0.06008588,0.3030988,-0.51539713,0.61004317,0.48000515,-0.13310485,-0.5057896,0.16499507],[-0.265562,0.13213387,-0.17493647,-0.17956464,-0.773365,0.38506544,-0.7703663,-0.6663934,-0.35913303,-0.676097,-0.060128458,-0.79099023,-0.51143104,-0.43510732,0.7487893,0.3487551,-0.5990358,-0.7774768,-0.8881693,0.7124193],[0.89224577,-0.5683851,0.99256366,-0.72749436,0.032000322,-0.5894855,-0.28761864,0.25078177,-0.6242991,0.7582549,-0.8457579,0.96589065,-0.28633893,-0.46049476,0.97295994,-0.18418618,-0.16638726,-1.0714728,0.2163069,-0.20792794],[0.71710265,0.86171836,0.8860826,-0.5929658,0.30891365,-0.61784875,0.5471287,-1.0080231,-0.53934306,0.19397116,0.007973125,0.02587597,0.6015755,0.3921671,-0.8050022,-0.24195035,0.43780112,-0.84735024,0.24096486,-0.38363773],[-0.74810386,-0.13656284,-0.11988535,0.10829932,-1.0597346,0.43065715,0.67627317,0.31327453,0.655592,-0.7042819,-0.78162485,-0.6274071,-1.0923678,-0.67736566,-0.26496413,-0.37498114,-0.8571455,-0.71218574,-0.08759005,-0.393674],[-0.7151655,1.0715716,0.3608139,-0.87812054,0.7486318,-1.0498179,0.6709032,-0.7666333,-0.104142934,0.25786486,0.2978053,0.19678217,0.86937016,0.9440317,0.26171285,0.8526619,0.09420928,0.7068937,0.388531,-0.12002785],[0.12029906,0.5070814,-0.49326545,1.0666748,0.85977894,-0.025596991,0.32772854,0.0683015,0.42829686,-0.34345347,-0.18449147,0.35108882,0.9579475,-0.3423658,-1.0078326,-0.9152082,-0.20205759,-0.5091325,-0.35227886,-0.3956817],[0.725208,0.9532713,0.2927171,-0.6414155,-0.25729105,-0.6331503,0.32293966,-0.16306771,-0.7807729,-0.7366871,0.8386872,0.02747342,-0.09620611,0.057577074,-0.7612177,-0.30666786,0.6104012,0.7506381,0.19850735,0.77139056]],"bias_h":[-0.39917395,0.20827463,-0.80896854,-0.69105804,0.7089744,-0.16285005,-0.36595803,0.10013069,-0.5326772,0.48147187,-0.71265155,-0.9423296,0.028071314,0.40517536,-0.9304791,-1.0707697,-0.10737133,0.6446455,0.83180296,-0.8776871,0.8714265,0.69899726,0.731796,0.10562619,0.35555562,-0.8133735,-0.32273903,-0.001828149,0.4942237,-0.46172217,0.23623815,-0.9211572,0.5197624,0.05761982,-0.16743895,0.62374514,0.96959347,0.72203285,-0.40969172,0.81620324,-0.97281754,0.25001562,-0.17974296,-0.2782539,-1.0611923,-0.4087624,0.046351247,-0.13681908],"weights_ho":[[-0.13300282,0.123767,0.7005028,-0.4043063,-0.37097162,-0.36554873,-0.6854495,-0.21952623,0.21209931,0.11942268,0.6895106,-0.82473284,-0.7781984,0.924485,0.57459825,-0.016817205,0.1298295,0.30561164,0.03677853,0.26062953,0.93356144,-1.0017489,0.27635756,-0.6052486,0.09680398,0.81013745,0.37090117,0.43749982,0.91428775,-0.14446148,-0.3376885,-0.23385996,0.42118427,0.184388,0.51319194,0.6483961,0.6205138,0.3938743,-0.51408607,-0.75388014,0.12325316,-0.24164465,-0.88022494,0.5645405,0.65360457,-0.2878339,0.14562093,0.46066484],[0.47646976,-0.36308393,-0.28517488,-0.9026404,-0.361483,0.5599201,0.75957227,-0.24186409,0.8899969,0.7545253,0.5472276,-0.48400438,-0.3005821,-0.40352154,0.57758456,-0.9303783,-0.9702299,0.54142004,-0.68779874,-0.69644636,-0.60906434,-0.85879356,-0.805491,0.61618495,0.43441463,-0.22384849,-0.045420848,0.4070986,-0.58623296,-0.59310305,-0.92399913,-0.34604496,-0.24391648,-0.15010464,-0.18446049,-0.23442179,0.067583404,-0.7670146,0.32749212,0.7569244,1.0102239,-0.85857046,-0.29635218,0.24851905,0.2510572,0.28262073,0.527057,-0.6031731],[-0.72540945,0.25580597,0.20986599,0.77664924,0.79261005,0.21362773,-0.40977454,-0.39988387,0.8479942,0.114099294,0.31333107,0.971532,0.10995573,-0.6017318,0.67110014,0.07342613,-0.36097473,0.72131985,0.91421145,1.0010291,-0.555455,-0.629218,-0.79968685,-0.54035926,-0.74964464,0.98396707,-1.0605698,0.109783754,-0.46203548,-0.89238566,-0.0031056404,-0.23498836,0.28901982,0.44712874,-0.24118826,0.69108933,0.045350306,0.8116406,-0.78985584,-0.22262903,0.7248278,1.0039191,-0.49491063,0.25616863,0.3783391,0.09846528,-0.92761195,-0.2353526],[0.23229101,0.004399823,0.17991143,-0.5848223,0.120957695,0.22071841,0.08939721,0.95556337,-0.08422825,-0.331921,0.8132468,-0.59479487,0.046375766,-0.11865549,0.823238,-0.9184859,-0.37786442,-0.7791275,0.60948133,-0.051742554,0.2652368,-0.6288159,0.44866708,-0.47112578,-0.8877864,-0.8515328,0.68231654,0.60594666,0.7944649,-0.8045121,-0.7361897,-0.052583374,-0.84698987,-0.021659385,0.6853653,0.08108249,-0.28004918,1.0706018,-0.026875708,0.05137149,0.693709,-0.4390773,0.7080476,-0.060208973,0.8955454,0.66901535,-0.06854795,-0.5851592]],"bias_o":[-0.06635179,-0.32727528,0.14106981,-0.30111662],"input_size":20,"hidden_size":48,"output_size":4},"generation":52}