{"weights_ih":[[0.7430978,0.30697164,0.6172929,-0.1283669,0.20933183,0.22108224,0.037850596,-0.95857394,-0.27918577,0.76865363,0.6558002,0.69955045,-0.9313848,-0.27725524,0.723212,0.32344335,-0.43198746,-0.41237313,0.76496524,0.00035886886],[-0.1423474,-0.43316638,0.63418955,-0.4047396,0.40124318,-0.5202701,0.1490577,-0.37824535,-0.9040077,-0.051343493,-0.97594583,0.13495573,-0.3972071,-0.12862584,-0.0680784,-0.90154296,-0.37252083,-0.77767044,0.08729808,-0.67118305],[0.7904026,0.8315312,-0.5210955,-0.80684066,0.47995955,0.38885492,0.07897731,0.9118785,-0.73377126,-0.87652135,0.2898324,-0.44523025,-0.61285055,0.14924538,-0.7402053,0.37576336,-0.33581972,0.72406447,0.6914098,-0.4787724],[0.30351475,-0.4726448,0.6885643,-0.031445198,-0.8258683,0.8272713,0.70164275,0.22984412,-0.01770325,-0.7874529,0.80188346,0.82038736,0.4254609,-0.20233807,-0.7089824,-0.000277929,0.75663555,0.38649964,-0.3545586,-0.32131156],[0.3166793,-0.46478552,0.604364,-0.4249575,-0.9344163,-0.55472267,-0.47039983,-0.2770594,-1.0004746,0.2759614,-0.2685026,-0.15608667,0.1398623,0.14598234,-0.5225261,-0.7512218,0.6995072,-0.08617757,0.3507685,0.7445743],[0.7124982,-0.92430073,0.5620891,0.13884063,0.626303,0.7498158,0.6343636,-0.75936437,-0.30100098,0.8888905,0.36020896,0.53965414,0.7766613,-0.9451629,-0.62810713,-0.54735106,0.6164882,0.030844744,0.08741476,-0.44006473],[0.9115217,1.0255572,0.07491887,-0.33001775,0.8510047,-0.83852696,-0.8815201,0.25126415,0.81058824,0.96958685,0.44750792,-0.9170598,0.85303724,-0.45573092,-0.45253012,-0.012347899,0.30764318,-0.07316127,-0.60813594,0.62730503],[0.4135764,-0.40299842,-0.3876546,0.27291372,0.8601532,-0.76758564,-0.26812622,-0.1733306,0.77992076,1.0487523,-0.5412199,-0.68224,0.2450256,0.12186101,-1.019174,-0.7742315,-0.959129,0.6542037,0.9168961,0.35634762],[0.048409827,0.89046484,-0.9078978,-0.42405885,-0.120654136,-0.68410665,0.45211586,0.8510728,-0.6863574,-0.9620235,0.25289991,0.84698653,0.80868244,-0.8432394,-0.605291,-0.5246425,-0.07915414,1.0528706,-0.2422434,0.6945414],[0.3445831,-0.4029983,0.049558885,-1.0450432,-0.15101956,-0.38323665,-0.26153663,-0.063232526,-0.82229877,-0.7761935,0.4622188,0.2895674,-0.3756715,0.8036682,0.11928377,0.46954066,0.8621973,0.49117774,0.7664956,-0.34343353],[-0.09064201,0.96662486,-0.30753687,-0.11289329,0.27860835,0.19025284,-0.0827368,-0.9122824,0.9129466,-0.36962426,1.0383645,-0.47680822,-0.7441822,0.12395631,-0.5025605,-1.0193172,0.47244525,-0.2135357,-0.7107193,-0.6469908],[0.7244583,-0.26194298,-0.8689284,-0.41089252,0.14022665,0.58914137,0.4101093,-0.78099763,-0.05901648,0.322794,-0.28103426,-0.58864796,0.47940686,-0.27912086,0.12683117,-0.225849,0.392514,-0.8398563,0.82074875,0.5252558],[0.3753393,0.47513914,0.63245696,-0.38362718,0.6092864,0.63296,0.48555064,0.14322785,0.77193445,0.6579566,0.3329347,-0.16497739,0.5184755,-0.4519716,-0.14687423,0.33678266,-0.9223497,0.21663794,-0.17267963,-0.11041834],[-1.0618547,0.50781125,0.2201667,0.55025446,0.34459692,0.84498465,-0.9579564,-0.32771266,0.8161089,-0.1938822,-0.5304374,-0.5499347,-0.23197661,-0.4533349,0.7950193,-1.0388503,-0.28313822,-0.2032172,-0.48802546,-0.4565422],[-0.78198564,-1.035013,0.18072402,-0.78530574,-0.10671437,0.22568765,-0.8929668,-0.5507531,0.7290951,0.34808674,-0.16190812,-0.3129652,-0.58322823,0.42548752,-0.6453502,-0.8846316,0.64103836,0.17416328,-0.003721091,0.82923967],[0.40429106,-0.30243278,-0.6595185,-0.6624125,0.67457044,-0.16158605,-0.65899134,0.6974936,-0.06504625,-0.9892675,0.5607671,-0.07099888,-0.25002038,0.15622154,-0.75551647,-0.5359591,-0.6909976,-0.31902558,-0.9187063,0.8502947],[0.6887391,0.7552159,0.14866534,0.7318046,0.069552764,0.021331917,0.16711654,-0.21803461,-0.8943941,-0.50278366,0.45375913,0.07785832,0.74660444,0.4502794,-0.77055633,0.7534754,0.13054797,0.006655599,0.11131484,-0.57239366],[0.34645575,0.07009662,0.83560574,0.031266518,-0.4384139,-0.7945915,-0.4911957,0.7673412,-0.5267025,-0.6828343,-0.18395762,0.25474802,0.14173426,0.37924463,0.7532226,-0.12793295,-1.0089666,0.9231507,0.4641261,0.60999334],[0.004608296,0.50486374,0.65047896,0.6225909,-0.5389099,0.74029475,0.47534502,-1.0637405,-0.949236,-1.2193674,0.44005394,-0.30893624,0.73550016,0.2040034,-0.30879796,-0.018177059,-0.5657738,-0.4854674,0.0128244385,-0.06817645],[0.23696133,-0.5230278,-1.0183643,-1.0031213,0.77372855,0.39994782,-0.28722736,0.37020677,-0.8086925,0.18579195,-0.5333087,0.15655765,0.4653316,0.16512407,0.73110455,0.15813492,0.3497735,-0.002217181,-0.20237757,0.2324816],[-0.7529799,0.014574934,-0.4318975,0.34622458,0.7692159,0.28416437,-0.7191631,-0.5109148,-0.102725446,0.6796853,-0.6406823,0.72020817,-0.7181224,0.53076947,-0.82897556,0.62932205,-0.19272235,0.6038343,0.09368915,0.5946701],[0.59673697,-0.96244144,0.7516472,-0.08156169,-0.6875763,-0.9954119,-0.789996,0.36120558,0.07545776,0.6656508,-0.25536343,-0.26382205,0.7465231,0.3857699,0.45106816,-0.5824165,1.0798655,0.4295529,0.77238023,0.6933146],[0.47437632,-0.87040555,0.066783294,-0.16605148,-0.0067439843,-0.19729283,0.2529407,-0.26412448,0.37640673,-0.31703135,-0.46052518,0.5144559,-0.2636314,0.016344544,-0.3418693,0.97977716,0.86474925,0.3458116,-0.2841618,0.18518476],[-0.3172099,-0.81661296,0.23954254,0.19859627,-0.7540477,1.0505008,-0.3210736,-0.1855111,-0.5161435,0.9033786,-0.6548937,-0.75465184,0.60403734,-0.9075291,-0.03440794,-0.40383548,-0.9214768,0.023126908,0.10987817,-0.4636305],[-0.2227622,-0.6379092,0.9758878,0.28074503,0.35125142,-1.0342091,-0.396832,0.9961698,0.86567503,-0.021488331,0.6690521,0.40632886,-0.48016548,-0.37086907,-0.95202124,-0.5342548,-0.7460149,-0.45044443,0.29410556,-0.2670998],[0.76419103,-0.21675529,-0.05023555,0.13373588,-0.5227252,-0.32790762,-1.0600151,-1.2232039,-0.17880331,-0.5054815,-0.7865165,0.61949205,0.26537454,0.5544799,-0.8133571,0.39597812,-0.56856936,0.60562515,0.38048288,0.6029816],[-0.5942342,0.7308037,0.52132994,-0.8847575,-0.6802875,0.806467,0.91777694,0.33718362,-0.81898725,0.8420399,-0.17319956,-0.87653965,-0.21443056,-0.9015729,-0.9361988,-0.5495382,-0.13517155,-0.9842303,0.48105288,0.35172355],[-0.8143414,-0.37140548,-0.20952263,0.6704911,0.7005517,-0.5179938,0.8760813,0.3462935,-0.33968544,-0.33370516,0.34611145,0.938306,-0.6809179,0.7777314,0.44194672,0.012865717,-0.89770496,0.64477295,-0.77931696,-0.6280408],[-0.69412243,-0.5162005,0.2902414,0.84773475,0.2607236,0.9208285,-0.8138831,-0.6212865,-0.56673664,-0.5073668,-0.13432519,-0.041262493,-0.51561093,0.030492673,0.20951824,0.7247045,-0.45025438,-0.9067836,-0.622591,0.56507194],[-0.7923629,-0.78115517,-0.37863433,-0.10493473,0.28076836,0.118581265,0.6725118,-0.78069603,-0.04096172,-0.9481693,1.018911,0.55668473,0.45529932,-0.24168077,-0.5632814,0.26855734,0.2846981,-0.85972786,-0.3265258,0.49409628],[-0.544214,0.84082466,-0.49684167,0.6286108,-0.32789126,0.21788841,-0.82318234,0.072847195,-0.6513622,-0.22395349,0.057649914,0.6225511,-0.6870521,-0.6818401,-0.02181361,-0.20464839,0.38964322,-0.6121144,-0.12200938,-0.0025739297],[0.23135585,0.82203215,0.2902743,-0.87488914,0.76861966,0.096569866,0.21104288,0.22502087,0.057441644,-0.3635536,0.35178187,0.72085196,0.15564322,0.5448814,1.0081539,-0.07328198,-0.6235179,-0.4502702,-0.12012984,0.9066783],[0.65191686,0.21487305,0.093831815,0.85819054,-0.011874372,-1.0439341,0.37164366,0.68647194,-0.009825893,-0.22033441,-0.32615352,-0.6119562,-0.06240168,0.28567693,0.052365337,-0.66397536,0.964348,0.14717476,-0.7394586,0.5141555],[-0.23998645,-0.57405466,0.025663272,-0.21512721,0.8648111,0.927819,0.80285823,0.17289332,0.6720081,0.6434938,0.6676962,0.71139765,0.1733395,0.43397743,-0.98403096,-0.027817674,-0.88344175,-1.0390608,-0.5358451,-0.14829326],[0.15972835,0.2570699,-0.8559649,-0.3656538,0.9599272,0.7638361,0.03976442,-0.27532196,0.6431276,-0.95286447,-0.11190213,0.723441,0.98248184,-0.6036827,-0.5526605,-0.92788166,-0.8168314,-0.08274011,-0.3889029,0.043026265],[-0.100068554,-0.65753233,-0.12854946,-0.035035267,0.11837113,-0.62000465,-0.0020355443,0.11778016,-0.3312552,0.71100044,-0.86198163,-0.7057183,0.25881213,0.20295241,-0.65802896,0.16504024,0.027194386,0.43900165,-0.3243539,-0.89483273],[-0.7827134,0.091737196,0.59453964,0.55392134,-0.6562702,-0.93407553,0.94955504,-0.9318565,-0.66573703,0.39594546,0.7925359,0.9530499,-0.47311485,0.66204256,0.5679904,0.91186255,0.62843096,-0.70737875,0.4495529,0.624012],[-0.326901,-0.83519506,-0.7092766,-0.15178367,0.25612152,-0.24013638,-0.63574874,0.71552074,0.010664396,0.03416132,-0.6205442,-0.21957056,-0.8067367,-0.28933704,-0.35485682,-0.8672984,0.08311559,0.5181004,0.9427382,0.56997603],[-0.2463237,0.60832125,-0.3466369,0.62930614,-0.80794126,0.8461967,0.6105823,-0.49753034,0.42161772,0.9097808,0.21152619,0.5301641,0.28489095,-0.73436576,-0.1291723,-0.11232425,-0.081093535,0.36724865,0.119490094,0.4180906],[0.52176726,0.05238776,0.34642035,-0.5164971,-0.5972175,0.9871198,-0.22494847,-0.06757947,0.5918411,0.67231166,0.99254006,-0.3101938,0.9037625,-0.67491806,0.4976783,0.32395908,0.58641934,0.748502,0.5318086,0.33817768],[-0.6171646,-0.7012962,0.32506636,0.5653124,0.39286324,0.7297835,0.609235,-0.43710428,0.07276569,-0.55162615,-0.7799533,-0.69529593,0.008919165,0.27944577,-0.67538834,0.48843652,0.52207726,0.15319584,-0.37498945,0.017473646],[-0.13382752,0.1137645,0.004501663,-0.2060139,-0.773365,0.4058981,-0.83992165,-0.68057317,-0.38389337,-0.72263414,0.10959739,-0.7879327,-0.56733716,-0.43510732,0.7890831,0.40733084,-0.8011397,-0.88029844,-0.7778674,0.7867642],[0.8253003,-0.5683851,1.0628535,-0.5402557,0.06720552,-0.55769354,-0.09804912,0.1783556,-0.56551945,0.8494257,-0.8803394,0.91156274,-0.27808797,-0.34914804,1.0712441,-0.29356948,-0.16638726,-1.0170404,0.023709208,-0.05754561],[0.79227465,0.85820764,0.7995881,-0.57735336,0.3153009,-0.69796145,0.5423095,-0.9160008,-0.47099763,0.31398582,0.038536757,0.094054446,0.83846927,0.28499073,-0.8019216,0.015422059,0.22799647,-0.84735024,0.42786598,-0.42724013],[-0.6834488,-0.13172553,-0.20545414,0.12162977,-1.0129325,0.38716203,0.67193675,0.24963991,0.6841131,-0.6541915,-0.62186337,-0.5084966,-1.108879,-0.9356072,-0.35785252,-0.35836983,-0.89662415,-0.6575017,-0.21253824,-0.33451754],[-0.64817995,1.028315,0.22897986,-0.70803535,0.7486318,-0.93727565,0.5950466,-0.56827676,-0.24586554,0.24023913,0.35950112,0.18910474,0.6525833,0.82007354,0.24120602,1.0573373,0.075050995,0.8097134,0.3149614,-0.1540631],[0.14014,0.50681543,-0.43247402,0.95774096,1.0046992,0.16462836,0.22009605,0.059477307,0.44110644,-0.4615348,-0.29515168,0.3581284,0.7383268,-0.3423658,-0.8743086,-0.8779149,-0.15146941,-0.60473937,-0.18995394,-0.47116536],[0.7648086,0.868479,0.29585373,-0.6307732,-0.19098584,-0.48807085,0.26878962,-0.15044,-0.65029204,-0.7188197,0.9029388,0.17615771,-0.17190164,-0.08001499,-0.71927905,-0.34684736,0.60134214,0.76832384,0.25400287,0.82793283]],"bias_h":[-0.27755028,0.24276406,-0.9321853,-0.5302688,0.7167584,-0.35449532,-0.302932,0.03958302,-0.3692205,0.38819736,-0.86222833,-0.8755779,0.092902094,0.48051476,-0.85896254,-0.76939285,-0.06441634,0.67998254,0.81240314,-0.9236186,0.95168924,0.7732259,0.6759046,0.06601002,0.37894902,-0.7483578,-0.19825885,0.030529268,0.6204782,-0.46172217,0.1457331,-0.82651776,0.4625947,0.069471024,-0.13266285,0.82831824,0.89955235,0.6850728,-0.59025854,0.7067616,-0.9248812,0.21025465,-0.21689595,-0.24086966,-0.9638825,-0.37080526,0.046351247,-0.03988029],"weights_ho":[[-0.13300282,-0.10382937,0.7005028,-0.28538266,-0.45902097,-0.36554873,-0.37659693,-0.41692314,0.14949644,-0.11262832,0.7909218,-0.73277223,-0.86427057,0.97245884,0.55513394,0.054840565,0.019320883,0.43799317,0.1948901,0.23973702,0.8968807,-0.9950286,0.35704544,-0.7154706,0.01755253,0.8084611,0.27645326,0.25185654,0.91428775,-0.10067294,-0.22036621,-0.40524605,0.38756508,0.28743923,0.38596845,0.62372696,0.57535756,0.5146793,-0.5304774,-0.75388014,0.12671526,-0.14923497,-0.9314181,0.50618875,0.44624907,-0.40412322,-0.037502557,0.5609971],[0.5006739,-0.4922565,-0.45369157,-0.89363474,-0.15349352,0.583765,0.75018793,-0.30675012,0.70910865,0.8854258,0.52209514,-0.5168206,-0.3864985,-0.30774596,0.6934132,-0.849613,-0.79978925,0.5765983,-0.68779874,-0.8265438,-0.63479114,-0.87212723,-0.87088734,0.7775402,0.479783,-0.22384849,-0.121644355,0.4726115,-0.6054572,-0.59310305,-0.7507493,-0.40322775,-0.30995727,-0.2764422,-0.21494824,-0.3908463,0.14777325,-0.7670146,0.21910118,0.85545,0.8820448,-0.8199095,-0.24888793,0.44841263,0.22863968,0.36406878,0.5065498,-0.70828104],[-0.78396153,0.12824717,0.17305943,0.85934407,0.7798729,0.113732725,-0.38525784,-0.37617525,0.85838443,0.04905681,0.17100136,0.8355668,0.05208458,-0.3523642,0.6412582,0.06493589,-0.4287403,0.76356554,0.9035435,0.85374403,-0.51226956,-0.63002867,-0.72417593,-0.77491355,-0.6908448,0.8890872,-0.99475014,0.0695569,-0.43348822,-0.7969426,0.01116251,-0.3508024,0.35266176,0.43207872,-0.021434382,0.75294,0.27207223,0.83108246,-0.8628683,-0.17242481,0.63814706,0.99072665,-0.57844424,0.20516378,0.33521152,0.12883879,-0.73189306,-0.20382838],[0.16527422,0.043026924,0.14810356,-0.77404016,0.28375053,-0.00033526705,0.060095858,0.92392963,-0.32508463,-0.3951054,0.64873284,-0.57869345,0.08847472,-0.017378196,0.77285016,-0.851815,-0.54152435,-0.89857656,0.77698153,0.011939356,0.130198,-0.4249671,0.44610956,-0.39915693,-0.89057004,-0.8075821,0.51067466,0.65939426,0.79383934,-0.80582243,-0.72116286,-0.19086437,-0.83823085,-0.074140556,0.6853653,-0.013892643,-0.03203339,1.025726,-0.08912568,-0.22003175,0.6493316,-0.5045968,0.6428788,0.05542573,0.7840458,0.7410113,-0.077801526,-0.67777497]],"bias_o":[-0.19983917,-0.4572303,0.09133928,-0.23476997],"input_size":20,"hidden_size":48,"output_size":4}