{"brain":{"weights_ih":[[1.0366282,0.19575095,0.97853565,-0.1625056,-0.21943152,-0.7173524,0.85315776,-1.111248,-1.421435,1.1377159,-0.944508,0.69472873,-1.1059668,-0.16409466,1.8977475,0.9509853,0.27639812,0.03259635,0.49511203,-0.6761356],[-1.2460649,-0.037150193,0.60357356,-0.4690547,-0.47563583,0.14445747,-0.001379475,0.0018548407,-0.6235938,0.87749386,-0.7340077,0.6563117,-0.6576817,-0.40406263,-0.98705983,-1.5244899,0.10046168,-0.7988129,0.61234397,-1.1704915],[1.2458493,0.13999829,-0.3688062,-1.6880796,1.4581037,-0.42449573,-0.42784908,1.1752223,-0.5584124,-0.3071898,0.44471967,0.026223455,-1.0909778,-0.60439247,-0.71206844,1.837317,-0.4848546,0.48001826,-0.2962075,-0.048193797],[0.27383262,0.27514726,-1.3839759,0.05242934,-0.44602716,1.2094568,1.0839999,0.6765032,-1.0227104,-0.9721376,0.4057179,0.18825462,0.46929812,-0.18053348,-1.1711195,0.70490205,1.262297,-0.100420915,-0.073325016,0.19837469],[1.841585,-0.849586,-0.3332026,0.2482732,-1.2973355,0.16326424,0.22562742,0.41445032,-0.8745399,0.98152584,-0.31487513,-0.4084702,0.80950135,0.6988456,-1.2283663,-1.0397966,1.4846925,-0.9857193,-0.52625775,1.7381554],[-0.066996545,-0.65428084,0.8509289,0.14719911,-0.47859892,1.6295469,-0.57611096,-0.65672004,-1.2742434,1.2668941,-0.15467179,0.6679063,0.94991606,-0.91511714,-0.95376825,-0.07970608,1.6905847,-0.15042257,-0.108552605,-0.3819827],[0.8136313,0.5038482,0.7300508,-0.16034584,1.2503622,-1.4150143,-1.717136,0.08260775,1.2165214,0.76340896,0.826257,-0.06626331,0.61495185,-0.4192137,0.27228075,0.092788935,-0.2157461,-0.023788325,-1.0807486,0.9825069],[-0.014304236,-0.22388215,0.94482464,0.19625163,0.8860877,0.048007775,-0.12385487,0.7011478,0.9188974,1.5598241,-0.726209,-1.1136259,-0.5018839,1.2812369,-1.7936089,-0.3130598,-0.52825844,0.91576713,1.3098147,-0.20819838],[-0.34559557,0.23932037,-0.6370678,0.11900644,-0.09693785,0.19753872,0.82301074,1.2179494,-0.4861232,-0.121833414,0.41199043,1.0479805,0.5572947,0.97008497,-0.60533017,-0.7784396,0.2106916,0.5448786,0.6947897,0.16347057],[1.3692379,0.20952512,-0.66935784,-0.86891955,0.15406147,-1.0346171,-0.024722412,0.37616292,-0.5548808,-0.008222552,0.2921552,0.36255658,-0.16617736,0.41513976,0.39349887,0.55867064,1.1735481,-0.27287146,1.1652997,0.3000528],[-0.24213928,1.4518322,-0.80773145,-0.19798145,0.5119648,1.150425,-1.4185596,0.6999822,0.8119867,-0.84104866,1.9413152,-0.043360494,-1.5609963,1.261597,-0.0820764,-1.1663407,0.2770706,-0.17350991,-0.31046832,-0.88858163],[1.8283169,-0.69600165,-1.3837864,-1.0966524,0.92135334,1.1911188,0.25305274,-0.83977556,-0.22494605,0.45813465,-1.4380072,0.8887837,-0.15105051,0.931798,0.5010794,0.59478635,0.4067192,0.1897707,0.8523243,1.7612529],[1.1171324,-0.22155906,0.74574023,0.26246363,0.642744,0.5338846,0.38060603,-0.6449603,0.9227167,0.61748606,1.2067801,0.29321435,-0.16057107,-0.95303386,-0.6587498,0.4577153,-0.84702426,1.4961988,-0.5943858,-0.44815058],[-0.96362096,0.91290957,0.5146584,-0.3882081,0.83608294,0.9949409,-1.445014,-0.20671028,0.30037433,0.2761718,-0.21491443,-0.57112366,-1.178803,1.0578737,-0.76544124,-0.8603808,1.0079778,0.85065067,0.38117862,-0.28936142],[-1.5865524,0.19896108,-0.46716863,0.6563336,0.74274886,0.39686498,-0.54997456,-0.9594682,0.1052226,0.058877192,0.8304483,0.8132607,0.3214626,0.71270865,-0.55532557,-1.047402,1.4202682,1.2031187,-0.4881022,0.70031065],[0.35190004,-0.5001786,-0.76765853,-0.7021321,1.4840344,-0.3644522,-1.8466172,0.51571274,-0.40961474,-1.2197828,1.0036467,-0.2553494,-0.04111208,-0.8054887,-0.5023301,-0.61908424,-0.79288816,0.47764397,-1.1189787,1.0835028],[0.7686205,1.2134066,1.1777464,0.27735925,-0.04195545,-0.06057077,0.3843936,1.1590259,-1.4068072,-0.034223426,0.12526755,-0.33444747,-1.0742584,0.1566456,-0.15217409,0.64458203,0.37237117,0.3433656,0.32937872,-0.8983509],[0.8379082,0.81733394,0.9704291,0.16507909,-0.86631525,-1.2434947,0.032926835,0.14106578,0.6156582,0.7729994,-0.6713889,1.0812038,0.26619002,0.5204593,1.03091,-0.08832802,-1.0706087,1.1158291,1.1157885,0.08197517],[-0.85759604,-0.033104576,1.4634124,0.7245503,0.4780839,1.1944419,0.12689076,-0.8060143,-1.1439885,-1.0643197,0.37787917,-1.0005715,1.4834503,1.194862,-0.32909527,0.93076444,-0.4753321,-0.88698375,0.20483169,-0.63832337],[0.6172873,0.27230054,-1.2425073,-1.8338994,1.9052889,0.72460806,-0.52267194,-1.073809,-1.18366,0.20332202,-1.6335037,0.89151657,0.4181556,0.18065453,0.95271266,-0.119427785,0.70329154,0.6054984,-1.1719707,1.0116609],[-0.38228643,-1.0940695,-0.75426614,-0.004757159,0.9005987,0.228078,-1.3446324,-0.050040454,-0.28361878,0.8043699,-1.4160302,1.1580898,-1.3212371,0.95130926,-0.18191625,-0.31819773,0.6657004,0.050314832,-0.40181556,0.2348532],[0.027049966,-0.91429734,1.6390191,-0.7086304,0.19655527,-1.2403888,-0.47217402,0.5992423,0.9015872,0.62162966,-0.16627897,-0.45181996,2.0,-0.1053977,0.49121118,-0.45102978,0.28680286,0.36691943,0.94641995,0.34585816],[0.76253384,-2.0,0.39298177,-0.10323125,0.50250673,-0.8471493,1.4245242,0.13469586,1.2923518,-0.28660858,-0.4663733,0.8594112,0.058517694,-0.28583983,-0.24292696,1.4373989,1.2128448,0.7078489,-0.98395276,0.69201016],[-0.50921947,-0.8697501,-0.107516624,-0.11858916,-0.111046,1.022341,-0.08185605,0.51256454,0.05055782,1.3995025,-1.5684539,-0.62353045,0.6356786,-0.83488154,0.43907344,-0.5184355,-0.43982202,0.75846386,0.19549988,-0.55706674],[-0.6877104,-1.5852846,1.7353939,-0.025873471,0.5583938,-1.1529715,0.18107751,0.71995103,0.83498645,0.69143337,1.149946,0.28183657,-0.55324703,0.25633213,-1.481658,-0.2811196,-1.5454887,-0.09759453,0.16494349,-0.16703233],[0.5360782,0.04635384,0.22333233,0.48726916,0.14723398,0.36475262,-0.22725525,-1.5228324,-1.177304,0.21597731,-1.3389195,1.0432831,0.5766952,0.7997501,-1.3359501,-0.2682298,-1.5377102,0.9311823,0.46822762,1.1464837],[-0.9302023,0.64077944,1.1073556,-1.2696847,-0.46960855,-0.37345496,1.8675666,0.24541357,-0.15134116,0.9764196,-0.12811446,-1.0774099,1.2799013,-0.8037549,-0.71794873,0.06550989,1.249847,-0.7524629,0.44734752,-0.56817186],[-0.54106694,0.29339555,-0.84995115,0.18779814,1.6192366,-1.1501613,0.41619962,0.52682745,-0.86776906,-0.9728832,-0.6979249,0.5864526,-1.4420757,0.91551596,0.82235265,-0.4279219,-1.589666,0.8293273,-0.15006202,-0.83766365],[0.2503237,-0.9895647,-0.2704286,1.7354347,0.6066446,0.2719338,-0.961855,0.17246678,-0.45878258,-0.16706263,0.34038353,-0.18048096,0.11032208,-0.26900023,-0.021393145,1.5442193,-0.4367609,-0.18261793,-0.40980005,0.42841905],[-0.5159401,-0.68765604,-0.29284376,-0.3211233,1.303326,0.30348843,0.90730786,-1.140523,-0.78756183,-0.21367325,1.1882966,-0.21181236,1.0225245,-0.5647411,-0.832326,-0.13383508,0.3756669,-0.69248515,0.58395255,0.7859953],[-0.9514488,1.4037985,-1.0221596,-0.37656093,0.3819011,0.047361836,-0.21105413,-1.1598675,0.3154358,-0.3203687,-0.3010296,0.68357027,-0.04847916,0.60818875,-0.15167585,-0.61532164,-1.000517,-1.1320431,1.1953368,0.22787088],[-0.21601641,1.614434,1.3864192,-0.42119017,0.17949563,-0.5099169,-0.4263639,-0.48865426,0.3457572,-0.72708493,0.43891838,-0.5143522,0.6946431,0.5357629,1.1591848,-0.31616485,-0.52458245,-0.7518794,-1.3717546,1.2729907],[0.9806386,0.38375062,0.076568976,-0.4378489,0.2479925,-1.3771328,-0.44674248,0.5543333,-1.4967031,0.3745254,-0.19017819,-0.60500807,-1.0651387,-0.5879412,-0.37406904,-1.250754,0.7908368,0.36378676,0.21322843,-0.30586806],[0.33163282,-0.74488294,0.5682198,0.7959943,0.31978577,0.70268065,1.0305772,0.23979336,-0.6326805,1.0616063,0.8391242,1.5210711,-0.42744485,0.52089804,-1.0212661,0.54641557,-1.2135178,-0.9515815,-0.2953374,-0.46376312],[-0.3034419,1.0559049,-1.074919,-0.9524863,0.91429865,0.44305325,0.74184424,-0.21230626,0.38254416,-1.183738,-0.020804167,0.6996492,1.0833563,0.4758349,-0.8675063,-0.45643774,-0.6628672,0.27788144,-0.2195158,-0.64982176],[0.755226,0.48026016,-0.09209755,-0.097475894,-0.4712023,-1.001878,-0.31084913,0.0956093,-0.48434252,0.02356702,-1.1722873,-1.3043892,0.725604,-0.18380256,0.06103127,0.61205506,1.0790057,0.58740103,0.65564096,-1.8496965],[-0.20543328,0.420032,0.28268075,0.8508878,-1.1223246,-2.0,1.8478109,-0.5430519,-1.2843307,0.89236253,-0.45773253,0.12803063,-0.14402798,1.1405872,-0.58794075,-0.19072609,1.4444588,-0.32137847,0.23594217,1.8889993],[-0.47101712,-1.170944,-0.7625341,-0.64511764,-0.74789846,-0.33629707,-1.4282044,1.3353893,-0.51627535,-0.16839303,0.065615185,-0.7378235,-0.656967,-1.0262022,-1.2751573,-0.47416914,0.08049917,0.27504244,0.97044504,-0.05438786],[0.28502172,0.018056385,-0.52462065,1.6544558,-0.73267937,0.3084765,0.24522081,-0.10233869,-0.45719296,0.48451096,0.21302581,0.46461493,-0.51208264,-0.73771125,-0.70470774,-0.02904427,-0.14913504,1.2553059,0.3035527,0.2839105],[1.1221938,-0.3089534,-0.50002,0.2731496,-0.6852429,0.7714348,0.019689366,0.040835127,0.6850292,0.8502171,-0.07913999,0.36546582,1.0049583,-0.83482945,1.1508536,1.1516013,0.3029083,1.782648,0.22749817,-0.47351658],[0.5659278,0.1610164,0.3793953,0.39803264,0.21603072,0.14255422,0.6858318,0.31630936,-0.47809568,-0.8083781,-0.7158435,-0.42108735,0.7268781,0.9506697,-0.6084549,1.1504755,0.48837936,-0.6580632,-0.6069958,0.7597461],[0.30406365,-0.84597677,-0.100014955,-0.7471959,-0.43306306,0.026473515,0.33646673,-0.95309126,0.42911047,-1.1373684,-0.25676212,0.42496207,-0.32685956,-1.1000863,-0.5288893,-1.127184,-0.1372394,-0.2962347,-1.3961449,1.3489772],[1.2334957,-0.36071068,-0.5134688,-0.9288124,0.41903684,-1.5179143,-0.02556983,-1.1484958,-1.0684898,0.64167774,-0.49389657,0.9349354,0.19029549,-0.8338114,0.4443982,-0.48894858,0.36525697,0.012498952,1.2612234,-0.65153086],[0.47513157,0.98735917,0.2564065,-0.53408873,0.34079468,-0.94918156,1.1508471,-0.8629417,-0.44344297,-0.089881286,0.07660303,0.46752912,-0.33600047,0.31866643,-0.33553854,-0.71865904,0.5681833,-0.6595347,0.21724166,0.013607688],[-0.8409934,-0.73381007,-0.8735029,0.68666106,-1.4362067,0.47031897,-0.7594618,-0.2316876,1.0557972,-0.6788408,-0.2946683,0.0107481,-0.8300791,-1.0547719,-0.9418962,0.018438896,-0.9094318,-0.27962285,-0.2556413,-0.63290036],[-0.8635016,1.3851103,0.08551213,-0.59415346,0.8940402,-0.69850516,0.4797907,-0.8476863,-1.2410035,0.051380675,-0.060033802,0.21244141,1.3618692,1.0439255,0.6132779,1.1304324,0.35944265,0.7364093,-0.22009526,-0.84594333],[-0.03420931,1.3039682,-0.036432452,1.5042454,-0.022911005,-0.0649715,0.87018704,0.97150385,-0.07331635,-0.12084493,-0.2739998,-0.13564715,0.5862531,0.21307327,0.80727726,-1.1505551,0.2173954,-0.8093493,-1.0758946,-1.6045481],[0.920557,0.65747845,0.73434514,-1.7847954,-1.1873006,-0.8345216,0.7628468,0.16220084,-1.1110734,-1.4551113,-0.30554944,0.1728051,0.0482104,-0.19397205,-1.4275476,0.54779273,0.38342062,0.40831357,-0.046167962,0.76369184]],"bias_h":[-0.41976842,-0.2991248,-1.488082,0.06889532,0.8333661,-0.45078978,-1.6149621,0.03539438,-0.057535574,1.3015122,-1.8517716,-0.836475,-0.19933265,1.7330405,-1.2740688,-1.6839355,-0.65803874,0.46833453,0.9074806,-0.9858834,0.75560665,0.5227321,0.49599183,0.9945268,0.29937032,-1.8545716,-0.52757365,-1.0407742,0.987237,0.57152784,-0.39062884,-1.1099387,0.3257122,0.73125035,-0.66286427,1.7938943,1.9875435,0.8090411,-0.40822294,0.26488724,-1.9133329,0.017931826,-0.64157456,0.3548461,-1.032712,-0.86070544,-1.6611814,-0.8389239],"weights_ho":[[0.40437907,-0.3691163,0.8799289,0.043018803,0.19730496,-0.71124536,0.36352378,-1.4812585,0.104704045,-1.0507537,0.46684432,-0.5494313,-1.5170354,0.88247126,1.139692,0.40168712,0.48055407,1.5437607,0.104218006,0.5230145,0.6714629,-0.6796163,0.34739208,0.93520224,-0.16700986,1.2066675,0.80230457,0.044409297,1.017112,-0.95755047,-0.45056915,0.095760085,1.072848,1.2067041,1.100087,0.5273482,1.6839768,0.1552,-0.014309784,-0.4617235,0.16035205,0.62109977,-1.8621168,0.16778842,1.7392043,0.97284096,-0.07670721,1.7576156],[-0.4479225,-0.58549756,0.07730647,-1.0232395,1.0688529,1.1804233,1.5824456,-0.408497,0.705968,0.7034744,1.1160793,-0.3182347,-1.3088026,-0.5840801,1.4277003,-1.7865382,-1.6662623,0.457698,-0.28472358,-0.43457115,-0.40665555,-1.4279674,-1.5321875,1.0340892,0.12201474,0.89713717,-0.21784481,-1.2317727,0.4591815,-1.0388085,-1.6418359,0.17616749,-0.046518464,-0.9381245,-0.35818416,-0.8544561,0.3140382,-1.0060974,0.3549316,-0.2794586,1.1403741,-1.9559015,-0.6422285,0.5654688,0.6346598,0.22113045,1.5238571,-0.9441085],[-0.4946369,-0.025288828,0.5377083,1.209834,-0.28221458,0.5652238,-0.3262505,-0.7323444,-0.17809987,-0.6935641,0.47421455,0.6523361,-1.1419903,-0.89458877,0.9501142,0.29809535,-0.6582373,0.93451744,0.10674465,0.5846171,-0.630507,0.22538456,-0.3609301,-0.5870863,0.018545968,-0.22361831,-0.62532085,-0.9216182,-0.6041099,-1.4806561,0.019357584,-1.3846494,0.98627627,0.2173636,-0.3265444,1.6024472,-0.44781837,0.42215723,-1.245866,-0.37358958,-0.2430577,1.1215227,0.07000364,0.6704111,0.45773387,1.1204207,-1.981562,0.24792816],[-0.71608967,0.2535258,-0.5146006,-0.8057122,0.14064139,-0.31384483,-0.17665902,1.2511202,-0.2823354,-1.1732305,0.82309985,-1.4536378,-0.70536804,0.124270014,0.64726526,-0.878723,-0.5205763,-0.92557865,-0.037134085,-0.5153917,-0.61523587,-0.456429,1.1069425,-0.073938556,-0.652561,-1.547154,0.8452592,0.7828688,0.7695399,-0.19863419,-0.22943257,0.571176,-0.6963281,0.36963084,0.46670198,0.19671081,-1.0486333,0.82097626,0.16741091,-0.34218514,1.6443999,-0.4776435,1.2821716,0.4109702,1.3854729,1.2458488,-0.37284553,-1.2654356]],"bias_o":[-0.81293076,0.23249759,0.8065915,-0.41138664],"input_size":20,"hidden_size":48,"output_size":4},"generation":2002}