{"score":108.0,"children_count":1,"energy_from_cells":0.0,"age":0.8000001,"brain":{"weights_ih":[[-0.8429204,0.5624278,-0.74890137,-0.1680006,0.70883954,-0.05039244,-0.82827276,0.27498594,0.9715764,0.09582829,0.6633746,1.0609218,0.035784353,0.4819431,-0.58505416,-0.46549603,0.3331272,-0.5023818,0.8757557,0.8639844],[-0.26312405,0.52855414,-0.66704774,0.031082805,-0.100137115,-0.3044295,-0.64271337,0.6426811,0.108345516,-0.15993446,0.81844664,-0.7722719,0.56596214,0.3926698,-0.37195614,0.40107536,0.90903217,-0.018204864,0.021624746,-0.9900951],[-0.4055105,-0.41463217,-0.7459663,0.11065007,0.20221016,0.003395761,-0.616189,-0.1979217,-0.6908056,-0.90119773,-0.7887707,0.41299,0.6914693,-0.40652224,-0.66950893,-0.26321885,0.5922899,0.5247914,-0.74051714,-0.35872516],[0.1285595,-0.036410455,-0.84436256,-0.08566656,0.29735583,-0.8165026,0.9360491,-0.50268275,0.34867787,0.83452183,0.6320844,0.27771348,0.5625166,-0.74927324,-0.7067311,0.26930353,0.58901703,0.85352725,0.56713325,0.04198912],[-0.52142686,0.73772943,-0.3007256,-0.61294013,0.0592101,-0.23883152,0.79858315,0.65669817,-0.93445235,-0.94580257,0.28289056,-0.4742061,-0.8313262,0.1378005,0.14409253,-0.8858935,-0.6574277,-0.3806093,-0.45905614,0.09238474],[0.65737563,-0.9863361,0.9570421,-0.9184695,-0.23457266,0.21478789,-0.11119094,-0.5066306,-0.5216541,-0.31616253,-0.8817106,-0.31604055,0.2189064,0.41674966,-0.64967424,-0.3629723,0.13646847,0.69844973,-0.5873676,0.024151094],[0.121059276,0.27595115,-0.15712398,-0.71429294,-0.523758,-0.50471747,0.1896056,-0.31272107,0.39246482,-0.29920435,0.55637574,-0.89998615,0.13075644,0.80236113,0.8702514,-0.75590914,-0.90367025,0.09482469,0.20170906,0.6794469],[-0.16911381,-0.45671985,0.8226764,0.3250253,0.46700785,0.24656636,-0.19460271,-0.7186072,0.5474127,-0.7374287,-0.14254515,1.0565182,-0.79494303,-0.86517066,0.23318505,-0.25911024,-0.2372351,-0.7711427,-0.71200395,0.39847833],[0.63180584,0.405263,0.10986538,-0.15465191,-0.34816778,-0.11620209,-0.07525335,-0.4445868,0.4258212,0.8645415,0.7442328,-0.8718442,-0.17767823,0.7318028,0.7812567,-0.114708774,-0.81173104,-0.8100122,-0.29164338,-0.47255182],[0.21846133,0.84827334,-0.055952933,0.13943356,0.8650462,-0.94486624,0.34963974,0.20143756,-0.28700322,-0.5297376,-0.568521,-0.1069693,0.40796512,-0.22681665,-0.050648294,0.45580363,-0.97066903,-0.51316935,0.08304767,-0.5645571],[-0.39195818,-0.333245,-0.36677957,0.27831727,0.16016567,0.46937415,0.16622132,-0.6261037,0.80280966,-0.47492352,0.50964636,0.34109437,-0.09041949,0.6547221,-0.3313292,-0.105669476,-0.5619224,0.04098455,0.7478447,-0.47860122],[0.76389503,0.32188323,-0.9018066,0.47757676,0.68997353,0.8682161,-0.6003612,0.8309037,-0.5529964,0.6997924,0.64208347,-0.43104845,0.71000624,0.76879525,-0.112711236,-0.7741017,-0.34105703,0.5893622,-0.22777636,-0.6696092],[-0.15245658,-0.53505874,0.17240544,0.12256919,-0.054302815,-0.12855066,-0.48717952,-0.20508265,0.84080046,0.49874622,0.28604123,-0.051311504,-0.8136027,0.55615187,-0.19525577,0.15532055,0.68090016,0.5154768,0.6656994,0.481739],[-0.57758635,-0.50624603,-0.030724537,0.6134598,0.9263585,-0.4688419,0.9477356,0.69295305,0.3673001,1.0274584,-0.8361476,0.5110506,0.9227799,0.83543015,-0.41201633,0.4645501,-0.25208417,-0.73132133,0.63508147,0.06213091],[-0.8239066,0.54509443,0.6041894,0.3235925,-0.14156176,0.49416688,0.67945796,0.930108,-0.92482054,-0.603236,-0.46899512,0.6089578,-0.52616096,0.37579456,-0.9254962,-0.34310508,0.6464188,-0.5755601,0.15791568,0.74119264],[0.3954371,-0.5353706,-0.67671317,0.020546194,0.81008035,0.098001555,0.13365151,-0.19745998,-0.002501409,-0.251587,0.58337605,-0.7443844,-0.560429,-0.03418137,0.4453544,-0.22624964,0.08493439,0.8152874,0.14485559,-0.7398999],[-0.5427355,-0.45783952,-0.03626498,0.51821077,-0.25251016,-0.42023203,0.091734104,0.21209732,0.8496889,-0.5373469,-0.53368515,-0.5691267,0.88621336,-1.0135252,0.104052,0.10912737,-0.22233368,0.5075963,-0.74543804,-1.1124008],[-0.8245735,-0.4170201,-0.007252584,-0.39943144,-0.968594,-0.19343883,-0.67660475,0.6102421,-0.07847201,0.3781843,-0.2994222,0.7627998,-0.3443427,-0.42175126,0.00997344,0.8415631,-0.46302038,-0.53396606,-0.7423652,0.4094612],[0.39727622,-0.8483559,-0.2669507,-0.2608904,-0.13488506,-0.27165642,-0.61988217,-0.6028254,0.6068957,-0.088554375,0.73668,-0.34745476,1.0289621,-0.5530387,-0.13138954,0.22314054,-0.30958357,-0.91717064,-0.73524487,-0.92676026],[0.5060358,-0.8877182,-0.45747188,-0.56130004,-0.2791993,0.76728797,-0.4691579,-0.08552336,0.91679174,-0.37582642,-0.85765815,-0.9664587,0.5198895,-0.529974,-0.7929407,0.5645602,0.5819484,-0.9494122,-0.28927183,-0.30689836],[0.9556319,-0.97649455,0.074813575,-0.773278,0.2835376,-0.65087533,-0.8922718,0.56858337,-0.054590255,0.5492938,-0.31960174,0.028862068,0.64393246,-0.25725454,0.9825422,0.58225787,0.69117475,0.11800117,-0.07597415,-0.8979632],[0.6237392,0.49031505,0.28358403,-0.0685598,-0.41935498,0.21225508,-0.92729986,-0.38208264,-0.38193145,-0.6831141,-0.13824609,-0.20671114,0.012920185,-0.91770905,-0.3945312,-0.52130705,-0.08448133,-0.09206375,0.5967336,-0.21078584],[-0.43591222,0.2524244,-0.08511948,-0.9464352,0.9540988,0.1761782,-0.4840242,0.6818128,-0.9823611,-0.6841938,0.75171715,-0.37194693,0.99918467,-0.0034386849,-0.9862269,-0.65213996,0.6765014,0.86815715,-0.25525492,-0.5937895],[0.41192532,0.4101543,-0.03721113,0.586496,0.6583652,0.21288806,0.29482442,-0.44887143,-1.0269299,0.58074105,-0.86907154,0.51909757,-0.33195472,-0.347638,-0.11071534,0.27559873,-0.14458905,0.06112454,0.15535215,0.9649443],[0.9283464,0.5672069,0.61509466,-0.33392438,1.0063103,-0.93989986,0.46156722,-0.53169376,-0.27188575,-0.66334593,-0.63062143,0.32724273,0.5190117,-0.3905204,-0.08214979,-0.31752616,-0.8069041,-0.25185555,-0.7871711,0.20250526],[0.22882637,-0.3212788,-0.10663079,0.23353815,0.072458535,0.8109449,-0.8416866,0.088138446,0.28537402,0.8013248,0.89551777,-0.6100661,-0.8772121,-0.49798456,-0.9221124,-0.0023836866,0.64477813,-0.79882103,-0.08715169,-0.35684356],[-0.29663604,0.14755364,-0.16895613,-0.8623528,0.34517527,0.06322873,0.18889807,-0.6854276,0.45357624,-0.1596336,0.67750627,0.41217488,0.74956155,-0.31699964,-0.8702577,0.38830397,-0.24086726,-0.7036459,-0.60905117,0.5793939],[0.34904185,-0.9127724,-0.941246,-0.08441617,-0.18073401,-0.06771034,-0.65422916,-0.15032582,-0.6437035,0.037869066,-0.23562066,0.45441964,0.6793386,0.86424613,0.49201813,0.32640946,-0.39155516,0.18333986,-0.76900667,-0.0828439],[-0.6080829,0.46066856,0.91761625,0.5501536,1.0280962,0.48967353,-0.9219949,0.14738005,-0.9752273,-0.23603706,0.99416935,0.39079258,-0.78228354,-0.22848207,0.23427473,0.6598753,-0.34336364,0.52320236,0.78985524,0.9276289],[-0.7893624,0.48003116,0.25438488,0.5240558,0.96311533,0.09426328,-0.20856644,0.10586579,0.801757,-0.4964905,-0.30293754,-0.21496935,-0.08180666,0.6315865,0.80875695,-0.59548,-0.8986745,0.5133771,0.7753321,-0.57322043],[0.2811496,0.02115813,0.36641836,0.43923324,-0.10251834,-0.6117936,0.3776736,-0.8054967,-0.30097684,-0.29898295,0.7688206,-0.058553357,0.969567,0.30275032,0.61637616,-0.47519588,-0.63713914,-0.9743528,-0.4959188,-0.9720795],[-0.0045418385,-0.12812722,0.9500844,-0.004332015,0.31945032,-0.51319313,-0.20889512,0.2317119,-0.14417894,0.19017535,-0.8775855,-0.42625603,-0.9420512,0.08795965,0.329591,-0.6636914,-0.58162737,-0.79653084,0.32764205,0.21764736],[0.63327265,0.09734483,-0.8729822,-0.11593632,-0.07877586,-1.0141884,0.67712915,-0.4433472,-0.5116678,0.086517274,-0.6347361,0.5992487,-0.6670923,-0.7009488,-0.994258,-0.88100225,-0.25475717,-0.17250915,0.61613375,0.6216002],[0.12258341,0.5756328,-0.6767263,-0.50289035,-0.5370322,-0.19447877,0.93890095,0.026129963,0.4562327,-0.47023162,-0.28242537,-0.30984768,0.7523799,-0.052108597,-0.84364486,0.73392624,-0.2343343,-0.996254,0.58574903,0.49210927],[-0.3158065,-0.37726998,-0.7538822,0.462194,0.44973946,0.96388227,-0.32011837,0.8641923,0.57880694,0.27029318,-0.4797436,0.7669758,0.67621654,-0.84450275,0.89142,0.20573944,0.9311207,0.8812334,0.63492423,0.96036685],[-0.6191073,-0.41379037,0.38766354,-0.87097794,-0.048287116,0.4856245,-0.52450216,-0.66215247,0.45793763,0.97971773,0.5947572,0.43326887,-0.9897572,-0.9755456,-0.8686731,-0.83764887,-0.2469705,-0.039350696,-0.12440797,0.7715416],[-0.39959005,-0.41815677,0.87048125,0.35041636,-0.36180967,-0.10679128,-0.046405885,-0.98159134,-0.12180046,0.4150729,-0.85489345,-0.45823544,-0.60559374,0.8048545,-0.55944955,0.56660825,-0.52509576,0.417373,-0.117041685,-0.6511778],[-0.7769722,-0.7768628,0.44048032,-0.7496547,-0.14063834,0.22200787,0.51742756,-0.004064561,-0.68118113,0.5085798,0.20904016,-0.94585085,-0.4255329,-0.5245687,0.80586153,-0.5528901,0.9267312,-0.7111574,-0.9785949,-0.9191086],[0.13718925,-0.8839601,-0.4840217,-0.41818947,0.30690867,0.28380862,-0.12288732,-0.22245164,0.10611739,-0.68418974,-0.4076186,0.79250747,-0.063100874,0.9776577,-0.17075671,-0.45359188,0.9022257,0.46533257,-0.22601032,0.2665625],[-0.6468565,0.9420231,-0.7692055,0.52988505,0.6194919,-0.23793794,-0.95985776,0.52948904,-0.63995564,-0.27705964,-0.043087557,0.6367745,0.78296703,0.6409796,0.14765884,-0.46130332,-0.36066887,0.16735923,-0.14982903,0.7742011],[-0.61647624,0.7988634,-0.96238256,-0.40706077,0.77785444,0.19053507,-0.8096523,0.2351471,0.3017621,0.10997878,0.45449853,-0.120777346,0.98149246,0.71519196,0.52219826,0.5006297,0.43912804,-1.0283566,0.9531823,0.09608272],[0.96445024,0.323746,-0.125457,0.42190987,-0.86329967,-0.002674637,-0.6588237,-0.081519954,-0.709789,0.20675547,-0.6967454,0.9927907,0.48803985,0.41229698,-0.49546838,0.09315057,0.93786055,0.90348244,-0.063473284,-0.7747454],[0.5476587,0.49800768,-0.14582324,0.2715161,-0.36691156,-0.7837374,-0.95435303,0.2096603,-0.40168926,-0.24269488,-0.54643285,0.7622167,0.36709014,-0.18852371,0.53802514,-0.8441884,-0.30458748,0.07788788,-0.6810142,0.2369113],[0.5729209,-0.07647898,-0.3182963,0.24824363,-0.6447396,-0.56113195,-0.41111436,0.59362155,0.21671854,0.77645254,-0.7218554,-0.28627393,-0.9235233,0.24755852,-0.14642906,-0.7706595,-0.7964742,-0.8218448,0.36971843,0.6668723],[0.33164585,-0.13046433,0.5505473,-0.004821986,0.47878385,-0.6037642,-0.75885266,-0.24141407,-0.14921369,-0.17583266,-0.29851907,-0.6416572,-0.090826094,0.83130604,-0.71470314,0.94799095,-0.9572773,0.67396843,-0.5914063,0.5152644],[0.46721262,0.48018733,0.26221147,-0.80367965,0.9431985,0.50058055,0.34745395,0.5522296,0.21416432,-0.9008333,0.11002396,-0.8834066,-0.97989887,0.49388814,-0.26066366,0.102088675,0.6665264,0.74961686,-0.4862377,0.76169515],[-0.76562613,0.7545602,-0.7750729,-0.92635447,-0.9611547,-0.14196794,-0.3115187,0.3393163,0.55227906,-0.32902488,-1.0624114,-0.49300417,-0.08719873,0.21349806,0.25084928,-0.32572398,-0.80972385,0.44080505,-0.67446464,0.21144667],[0.33318105,-0.06964753,0.9997737,0.5723874,-0.56399107,0.41189808,0.8219703,-0.42877793,-0.50697726,0.82193696,-0.4944575,0.7562144,0.3006661,-0.9796394,-0.22510107,-0.07459683,-0.37900567,0.85250086,-0.24337088,0.1359125]],"bias_h":[0.25947976,0.36254898,-0.5395606,-0.4380647,0.17256723,-0.5564518,-0.23757806,0.7162775,-0.8585391,-0.81153214,-0.85899866,0.37980834,0.21008602,-0.9476737,0.71445674,0.4140169,-0.90326214,-0.43153003,0.49623907,0.30071747,0.9090097,-0.7917101,-0.73775154,0.13361374,-0.97707456,-0.7474588,-0.6893738,-0.1524515,0.73345184,-0.7389313,-0.34059107,-0.95303684,-0.66852033,-0.04196588,0.42960927,-0.9092294,0.16731556,0.41597718,-0.5973896,0.41445935,-0.94384974,0.07433749,0.021758925,-0.9617399,-0.79191834,-0.82948536,-0.078467324,0.6976896],"weights_ho":[[0.32509157,-0.66972345,0.23497614,-0.38134652,-0.122775085,-0.3536849,0.90340835,0.19215205,-0.78396976,-0.30673647,0.14757425,0.94741946,-0.36322805,0.79028296,0.9475731,-0.8945501,-0.72506315,0.67252195,-0.05498876,-0.22288607,0.4557371,-0.6410111,0.27735677,0.9967483,0.41983336,-0.30820328,0.5430768,-0.0455051,0.5192468,0.27352273,-0.7375353,0.68772376,0.24288474,-0.04552104,0.80313575,0.1775748,-0.9115963,0.8032442,0.3468436,-0.4369557,0.2683646,0.63911515,-0.76341355,0.9470805,0.15755352,0.72508544,-0.587784,-0.43302426],[0.7025271,-0.27443096,0.99804246,0.02921984,-0.8341265,0.2003744,-0.8134679,0.7772904,0.7803717,0.554331,-0.9672914,0.2820385,0.60994786,-0.7322491,0.94154537,-0.16426209,-0.9773901,0.6823431,-0.8792415,0.08236362,0.93410647,0.26106846,0.28541574,0.69249654,-0.5409395,0.017700357,-0.15861599,-0.6979248,0.14985745,-0.46756893,0.88928294,1.022666,-0.718854,-0.18723866,-0.24354386,-1.0822818,-0.7232541,-0.15353024,-0.5726125,0.8496737,0.6011123,0.78912795,-0.29202375,0.7794175,-0.9338302,-0.47526526,-0.60448,0.4145291],[-0.5159613,0.45856884,-0.82290345,-0.22140096,-0.41153574,0.38378584,0.10434842,-0.911684,-0.7222104,0.0070021152,-0.09718125,0.14833137,0.13731149,0.97129893,0.362321,-0.6596543,-0.44843253,-0.15207762,0.5790973,-0.8170329,-0.13361128,-0.97306514,0.56460965,0.8937691,0.8385279,0.86675555,0.88398,-0.74307245,-0.27565715,-0.026650462,0.34572378,-0.7972678,-0.24294138,-0.49489713,0.25231716,-0.59301144,0.4581524,0.32701665,-0.75940686,0.38080567,-0.72981566,-0.70074046,-0.33779278,-0.44381997,-0.37389278,-0.82733786,-0.1495253,0.74263227],[0.89672875,0.63234496,0.4160291,0.42949557,-0.109031685,-0.50710154,0.7039492,0.25250512,0.37168878,-0.2880148,0.46554336,-0.23012191,-0.37658733,-0.63079786,-0.33674455,0.66815406,0.10348672,-0.55939376,0.1483899,-0.12171459,1.0125741,0.84185034,-0.9770362,-0.5881055,0.51553303,0.6690033,-0.84731114,-0.616283,-0.48717052,0.88986295,0.7956778,-0.73890567,-0.6637714,-0.83506805,-0.6202237,-0.87895626,0.12171599,-0.56532097,-0.5401965,-0.7640696,-0.13232437,0.1888891,0.92000973,-0.03503476,-0.77379864,0.9252225,0.6491375,0.9125949]],"bias_o":[0.8872766,-0.5646166,-0.32954484,0.9024768],"input_size":20,"hidden_size":48,"output_size":4},"generation":9}