{"brain":{"weights_ih":[[0.72019553,0.27311838,0.7578682,-0.26791674,0.33880785,0.116325125,0.15000626,-1.013468,-0.26239786,0.69664705,0.29023856,0.4832256,-1.0824373,-0.41571584,0.73653495,0.15898368,-0.7239619,-0.71309775,0.8165587,-0.050353404],[-0.37770933,-0.27307817,0.48819813,-0.2688556,0.3785749,-0.42303988,0.16388884,-0.5177995,-0.74112916,0.072544925,-1.1308141,0.35050166,-0.2172682,-0.24986663,-0.10299696,-1.0269148,-0.0014424808,-0.7293453,-0.02477527,-0.65340763],[0.7766546,0.7240215,-0.56010807,-0.83631694,0.3098143,0.29472885,-0.21240471,0.8076904,-0.51447767,-0.537188,0.23894227,-0.37667528,-0.41552058,-0.01975933,-0.72469425,0.70131636,-0.18653469,0.65250456,0.42924282,-0.5523364],[0.2622024,-0.58075655,0.27829084,-0.0331574,-0.97597444,0.7912335,0.8518673,0.11075261,-0.33430582,-0.8094838,0.9017461,0.83301204,0.65992385,-0.23351398,-0.67159474,0.040520366,1.1258632,0.3816949,-0.22683665,-0.43787315],[0.21366939,-0.45848197,0.41689616,-0.45757592,-0.73536074,-0.84263223,-0.40525255,-0.10898784,-0.98914975,0.32788014,-0.1682339,-0.65354997,0.039881296,0.39769238,-0.52584064,-0.83148307,0.46013668,-0.37263626,0.33622608,0.7835583],[0.6636928,-0.91887814,0.5445094,0.49339294,0.68295026,0.8320594,0.8652889,-0.9570573,-0.39453882,0.8678626,0.40683,0.39141643,0.9669157,-1.0913267,-0.87261117,-0.47289136,0.45135245,-0.13101208,0.05708131,-0.5263742],[0.9603931,0.8711835,0.27732497,-0.25952986,1.1750262,-0.8671584,-0.99054825,0.025350288,1.0575907,1.1347779,0.37442765,-0.8456298,1.0052661,-0.5098988,-0.5536041,0.10986063,0.5735952,-0.2147931,-0.9649054,0.8558892],[0.49597797,-0.4154138,-0.39646673,0.38106713,0.7162541,-0.62701136,-0.32617745,-0.1560673,0.42320374,1.0025524,-0.6819184,-0.7532254,0.13893153,0.17389567,-0.98458827,-0.98671526,-0.65809417,0.70660484,0.97960526,0.2691732],[-0.16563572,0.60007745,-0.9314522,-0.37666798,-0.052764688,-0.63609314,0.56247604,0.72257155,-0.7051321,-0.75655454,0.46126512,0.9255061,0.89508957,-0.91958785,-0.729349,-0.57532007,0.09146203,0.89696205,-0.0455319,0.7208127],[0.43896025,-0.520234,-0.009525403,-0.82832897,0.030618064,-0.5534358,0.044640187,-0.26673904,-0.6659795,-0.5831578,0.2823425,0.5593187,-0.3245925,0.48835158,0.03490016,0.33412886,0.8526057,0.4488358,0.74793434,-0.26219782],[0.19111162,0.98332286,-0.21083437,-0.092281856,0.36467865,0.24426635,-0.24490201,-0.8104705,0.65014654,-0.25511366,1.1484396,-0.59513795,-0.78350174,0.16167912,-0.45596564,-1.1079489,0.62448025,-0.30916515,-0.634319,-0.46062207],[0.88498265,-0.44618416,-1.0892367,-0.2747828,0.10259864,0.6305529,0.30974722,-0.4801204,-0.22839308,0.34580982,-0.552762,-0.29006904,0.5076458,-0.30913097,0.041711777,-0.26856142,0.34710273,-0.5921439,0.9472823,0.7128765],[0.3917384,0.5783158,0.2654558,-0.4123169,0.4530744,0.43600896,0.674438,-0.15784425,0.7865271,0.6487021,0.33691663,-0.07289576,0.54382807,-0.37434417,-0.32929495,0.60492384,-1.0836164,0.3746657,-0.01396681,0.0055165403],[-1.1062627,0.43439153,0.42955646,0.28785998,0.6659667,0.9676807,-0.88470095,-0.09506384,0.8014894,-0.089110136,-0.7282108,-0.6637304,-0.17433044,-0.28962374,0.9892153,-1.2769881,-0.06209229,-0.15010303,-0.30140215,-0.5819282],[-1.0497162,-0.9374444,0.109308995,-0.5214847,-0.12293321,0.39950618,-0.9997679,-0.59321606,0.91348314,0.52364,-0.26926026,-0.3484385,-0.238806,0.48337242,-0.6663003,-0.890712,0.6587355,0.35329884,0.22062235,0.8653551],[0.29877603,-0.3006793,-0.6863009,-0.7136393,0.72377956,-0.33616722,-0.75352985,0.6963353,-0.060826536,-1.0586867,0.5884501,0.17817485,-0.17824236,-0.004267136,-0.54901725,-0.7353741,-0.6146611,-0.15149805,-0.9800142,0.7449871],[0.86012137,0.8517365,0.14731205,0.46825844,-0.07888323,-0.26360092,0.17907721,-0.16056632,-0.83217776,-0.6025914,0.2002889,-0.1913095,0.6662886,0.63495696,-0.9387474,0.80698884,0.3060372,0.04209832,0.067945674,-0.7481235],[0.58810806,0.1670858,0.8211295,0.053313054,-0.4634338,-1.3498104,-0.43170527,0.7734125,-0.41798377,-0.5643214,-0.35737225,0.36831886,-0.007757932,0.33504325,0.7628855,-0.20712912,-1.0913888,0.95106655,0.5295509,0.47361228],[0.18511096,0.8343161,0.80077726,0.81214505,-0.7000202,0.59648204,0.4143267,-0.89123666,-1.0144681,-1.1805842,0.31634155,-0.2704644,0.6880652,0.44708678,-0.2723186,0.029693324,-0.45993716,-0.48070455,-0.081323974,-0.19402699],[0.4356546,-0.48286068,-0.84833044,-1.0311211,0.7779428,0.6669608,-0.080301255,0.31799233,-0.79287994,0.20950408,-0.5448401,0.18419242,0.36497715,0.24833591,0.49865422,0.041972607,0.26222813,0.056976795,-0.12531212,0.6334273],[-0.7954908,-0.37389165,-0.26604426,0.20175117,0.8806449,-0.031302683,-0.61581624,-0.4431639,-0.24983698,0.8007994,-0.61746323,0.8119605,-0.87240994,0.6088777,-0.7211184,0.5608201,0.09084854,0.47866762,0.08301525,0.44553605],[0.4398678,-0.98600924,0.77579254,0.20977059,-0.5487174,-1.311737,-0.67995274,0.46281958,0.10048723,0.56293917,-0.13732915,-0.29384142,0.7531645,0.33360666,0.42956206,-0.50929254,1.0160998,0.43973863,0.6996652,0.2992722],[0.27185547,-0.8307682,0.03342809,0.06831392,-0.08912182,0.07292555,0.45199645,0.074724786,0.27502114,-0.3775636,-0.7003862,1.0601556,-0.24362972,-0.17185764,-0.1591664,1.1577693,0.8377672,0.15670997,-0.13570476,0.1817031],[-0.5535879,-1.082509,0.31445235,0.036200687,-0.76375604,1.3526758,-0.2043503,-0.18809515,-0.54170185,0.92335874,-0.5936875,-0.7452152,0.7270367,-0.8811973,-0.1908414,-0.55956274,-0.8847195,0.050587036,0.047262922,-0.4533022],[-0.14603795,-1.0510589,1.1225002,0.15152761,0.72844625,-0.9761446,-0.27090818,0.62379086,0.81220055,0.35577703,0.6307756,0.38361925,-0.53109646,-0.1858542,-0.9488257,-0.6844121,-0.9698407,-0.5345183,0.24699643,-0.3297315],[0.8416526,-0.23180316,-0.08826092,0.07193269,-0.5563846,-0.252209,-1.1593605,-1.1347617,-0.36031958,-0.4841466,-0.9189959,0.5997489,0.5519694,0.54694647,-0.7908316,0.30458552,-0.57229024,0.46605015,0.12775712,0.44107583],[-0.8695304,0.8477116,0.540931,-1.0942942,-0.7047403,0.710705,1.2485541,0.078693666,-0.8866039,1.1422814,-0.14424883,-0.95918685,-0.18836197,-0.7203108,-1.2058914,-0.3647946,-0.04612171,-1.1544231,0.5353476,0.2697531],[-0.7524071,-0.14152816,-0.03451547,0.5374507,0.84676194,-0.23715258,0.8336231,0.20302898,-0.39431396,-0.31786224,0.15532422,0.9931268,-0.883877,0.8333378,0.6464384,-0.41327074,-0.5387043,0.5089528,-0.9246231,-0.4350603],[-0.42202085,-0.33309233,0.4311209,0.96930647,0.28159106,0.78369045,-1.3224789,-0.2836172,-0.40750664,-0.38934183,-0.1531271,-0.028465029,-0.45256975,0.12720093,-0.054708146,0.8267927,-0.24878338,-1.0475057,-0.24309765,0.60797],[-0.75717115,-0.8873354,-0.4230586,0.015745193,0.34883207,0.17073643,0.6960426,-0.60712147,-0.32704532,-1.139808,1.110842,0.542024,0.51341784,-0.18599752,-0.7363624,0.30687433,0.4964599,-0.77942324,-0.2973061,0.24826421],[-0.79747844,0.8087103,-0.34054223,0.6543977,-0.3223702,0.15428554,-0.9779357,-0.26993862,-0.44390452,-0.30531797,-0.26213807,0.9220272,-0.85200787,-0.55794066,0.20699021,-0.04146456,0.47072017,-0.8035133,0.00051909685,-0.14652938],[0.33750764,1.224211,0.29493678,-1.0122447,0.8706387,0.007500358,0.030838914,0.13500425,-0.12552485,-0.14064881,0.4967448,0.63019145,0.60518676,0.31816185,0.92595124,-0.11202365,-0.55427516,-0.46515432,0.182063,0.8030817],[0.5814667,0.21051277,0.206988,0.79804695,0.14368048,-0.93901145,0.16378836,0.67724913,0.057835214,-0.3627018,-0.24935941,-0.6635194,-0.29953536,0.40831372,0.03991613,-0.945298,0.6515393,-0.053051427,-0.87542754,0.5509205],[-0.23380189,-0.5428388,-0.17861542,-0.047566094,0.9458971,0.8293054,0.7315464,-0.0445431,0.79337007,0.63184357,0.8470838,0.79400146,-0.02289293,0.49835193,-1.0841268,0.35670215,-0.98138815,-1.1358178,-0.47551522,-0.20021915],[-0.023534559,0.25402275,-0.95317954,-0.6090471,0.8411008,0.90299946,0.08410353,-0.3329567,0.5075008,-0.90368956,0.0043353513,0.88935703,1.0055,-0.99747264,-0.37517005,-0.7526936,-0.7200174,-0.12740603,-0.19622257,-0.20946068],[0.14835815,-0.28039908,-0.15507577,-0.07551971,-0.29881984,-0.543463,-0.06626751,0.2507275,-0.28461754,0.7698004,-1.248262,-0.5326641,0.32508394,0.22547604,-0.70991844,0.44254187,0.18697673,0.4098766,-0.24622571,-1.2281547],[-0.6835746,-0.148723,0.34924653,0.6286771,-0.7509016,-1.0920856,0.7732547,-0.7763274,-0.49292374,0.27306527,0.5111394,0.8331778,-0.3195995,1.0866024,0.52072453,0.88604283,0.47330785,-0.5790754,0.38321477,0.94130546],[-0.4116555,-0.793041,-0.75585896,-0.14401668,0.32213253,0.07311475,-0.42586887,0.8134222,0.049599648,-0.022146083,-0.5657087,-0.19054636,-0.788761,-0.4203972,-0.040773876,-0.60152215,0.5669595,1.0104458,1.0185355,0.6442352],[-0.20092061,0.4415279,-0.49316442,0.6662498,-0.60413694,0.7948387,0.6319777,-0.33725485,0.38680133,1.0477289,0.15610477,0.8109679,0.21930513,-0.6926712,-0.33988655,-0.16100454,0.049838565,0.32784444,0.1782614,0.32192096],[0.6767975,0.015916273,0.061248496,-0.51328903,-0.25766465,1.0079978,-0.38537225,-0.09950379,0.55141073,0.5562957,0.9713677,-0.32873192,1.0205345,-0.5724545,0.6160135,0.39104027,0.4624126,0.85827917,0.6083425,0.24103561],[-0.9315528,-0.51682436,0.32026175,0.44541204,0.6019219,0.94149643,0.48169917,-0.57685006,-0.13491163,-0.5014396,-0.9743755,-0.54909617,0.11261365,0.22762787,-0.6265898,0.66699475,0.42726243,-0.07235676,-0.5235892,0.30066273],[-0.40069732,0.22101688,-0.4924597,-0.3827169,-0.7047504,0.40322456,-0.69994545,-0.68407416,-0.27145514,-0.67372,-0.118891686,-0.69456244,-0.5704748,-0.2546042,0.6122259,0.07435678,-0.6391249,-0.9522232,-0.8672107,0.5646367],[0.89423233,-0.6406843,1.0203944,-0.59832835,0.24830672,-0.7132734,-0.21858005,0.13074932,-0.364112,0.65203476,-1.0111623,0.94511634,-0.22965786,-0.53504,0.9648184,-0.3922012,-0.13619757,-1.2395694,0.3793534,-0.47753754],[0.50430673,0.7123476,0.96409553,-0.49422812,0.42049032,-0.5541389,0.52980113,-0.94456446,-0.6358589,0.38105288,0.037871093,0.08151149,0.4530621,0.45257908,-0.76772153,-0.33694664,0.40049398,-0.9773866,0.31905413,-0.526643],[-0.70347357,-0.22785431,0.07161567,0.085611075,-1.2253113,0.29604146,0.44267157,0.2183342,0.70689046,-0.5839935,-0.6157688,-0.6061499,-1.1339864,-0.64727205,-0.4140265,-0.28305602,-1.0281211,-0.46121818,-0.23557389,-0.34474728],[-0.72477764,1.4461231,0.36682168,-1.0125037,0.7488188,-1.0232359,0.72965896,-0.8013658,-0.2846321,0.17832205,0.22209027,0.33638617,0.719855,0.9222507,0.4552384,0.7836311,0.26281413,0.7040174,0.49906334,0.054890342],[0.24950403,0.36907098,-0.25029698,1.0850368,0.8049065,0.03596529,0.30184132,0.09356702,0.437654,-0.26551706,-0.28652656,0.2690685,1.0994364,-0.3423658,-0.84107447,-0.79505116,-0.18818416,-0.48421186,-0.40099055,-0.43484616],[0.62518954,0.853318,0.3456465,-0.79550153,-0.29960215,-0.7251919,0.2050659,-0.07089913,-0.78108495,-0.7980983,0.67025757,-0.26176608,0.16564496,0.23435578,-0.94467413,-0.31933078,0.82493013,0.70094657,0.2573167,0.7528191]],"bias_h":[-0.4678362,0.09823876,-0.80451953,-0.73142105,0.57443273,-0.045875344,-0.2601906,0.124143004,-0.4561237,0.39645183,-0.5238876,-1.1206973,-0.0009045899,0.49974504,-0.9119438,-1.2150093,-0.16821204,0.6753568,0.8100176,-0.84537643,0.7890911,0.53115064,0.6220041,0.31497085,0.4458233,-1.0668063,-0.28051347,-0.16601202,0.44839516,-0.27478147,0.3943451,-0.8290852,0.4339284,0.11628619,-0.1305706,0.6640359,1.1483289,0.72203285,-0.55615455,0.8821381,-0.977462,0.15462677,-0.5027998,-0.18314964,-0.95551735,-0.6046619,-0.055934254,-0.08844223],"weights_ho":[[-0.0799403,0.28217444,0.66073084,-0.6105973,-0.30166513,-0.28628227,-0.7125019,-0.039788924,0.19633415,0.27641344,0.55457455,-0.8942066,-0.78738487,1.2002935,0.47491288,0.06893096,-0.14488104,0.4683517,0.2285936,0.027658854,1.0407065,-0.9549138,0.40463883,-0.5757011,0.39055538,0.5792336,0.5657383,0.39529803,0.73046046,-0.18148333,-0.19615884,-0.39625886,0.40477115,0.27748495,0.72104454,0.6647463,0.9615202,0.58142203,-0.64987063,-0.7611662,-0.029230647,-0.35369432,-0.8296069,0.6105194,0.56641614,-0.29442504,0.29527935,0.6175408],[0.45435566,-0.4343894,-0.2409605,-1.0117717,-0.25216174,0.4261221,0.82895243,-0.5628905,1.132456,0.77040935,0.67331886,-0.68748176,-0.19972426,-0.6399031,0.6962267,-0.7885563,-1.0827596,0.44868678,-0.4717098,-0.7257419,-0.5848259,-1.0436497,-0.75528735,0.5610815,0.5216353,-0.06381688,-0.04787261,0.16478157,-0.4438362,-0.7310806,-0.831093,-0.1974898,-0.44049263,-0.13986373,0.25715503,-0.35465997,0.039353233,-0.83104336,0.051535577,0.71259016,0.91489583,-0.75730634,-0.30625245,0.08899171,0.24523792,0.1584958,0.5789977,-0.69482094],[-0.90460837,0.22234073,0.35220897,0.8547715,0.7532334,0.30488646,-0.39609128,-0.40052298,0.7696592,0.086534426,0.32284096,1.0585341,-0.0095757395,-0.6762915,0.5128106,-0.0466239,-0.30234316,0.9304713,0.624128,0.9686075,-0.4115928,-0.902597,-0.92085457,-0.35821587,-0.8218825,0.8003143,-1.1768061,0.11586498,-0.4155954,-0.9513291,-0.009854142,-0.13587323,0.31540698,0.59806025,-0.14772211,0.76601607,0.062509626,0.7331338,-1.0609409,-0.1026154,0.7149412,1.083199,-0.31439614,0.14057884,0.45856696,0.14311595,-1.0832275,-0.2656501],[0.107119024,0.035576615,0.23641686,-0.53319573,0.023585867,0.3299551,0.24453478,0.83835137,-0.2943653,-0.331921,0.68436253,-0.63865393,0.027906364,-0.1617465,1.0564588,-1.0980265,-0.47433075,-0.93641293,0.5315872,-0.034380496,0.22025345,-0.68519783,0.51460373,-0.0676619,-0.97945786,-0.702756,0.6526335,0.44388476,0.68155324,-0.6540531,-0.7943077,-0.1927126,-0.966787,0.03878335,0.5198854,0.16649783,-0.3786349,1.0983843,-0.059315182,-0.13967009,0.82195807,-0.5890761,0.8303073,0.023370601,0.5914871,0.58150434,-0.18353029,-0.7527355]],"bias_o":[-0.06289384,-0.4162357,0.24318282,-0.41467172],"input_size":20,"hidden_size":48,"output_size":4},"generation":138}